digraph Tree {
0 [label="X[4] <= 1523.5294\nmse = 226759962.95\nsamples = 10000", shape="box"] ;
1 [label="X[4] <= 1405.8823\nmse = 34176695.3781\nsamples = 6000", shape="box"] ;
0 -> 1 ;
2 [label="X[4] <= 1288.2354\nmse = 9292142.39398\nsamples = 4000", shape="box"] ;
1 -> 2 ;
3 [label="X[4] <= 1229.4117\nmse = 1336522.93743\nsamples = 2000", shape="box"] ;
2 -> 3 ;
4 [label="X[0] <= 0.2750\nmse = 218877.583292\nsamples = 1000", shape="box"] ;
3 -> 4 ;
5 [label="X[3] <= 0.1350\nmse = 100583.286892\nsamples = 600", shape="box"] ;
4 -> 5 ;
6 [label="X[2] <= 0.2175\nmse = 111163.666462\nsamples = 120", shape="box"] ;
5 -> 6 ;
7 [label="X[0] <= 0.1750\nmse = 82514.9000527\nsamples = 36", shape="box"] ;
6 -> 7 ;
8 [label="X[3] <= 0.1250\nmse = 46241.6336277\nsamples = 24", shape="box"] ;
7 -> 8 ;
9 [label="X[2] <= 0.1875\nmse = 33051.8585642\nsamples = 12", shape="box"] ;
8 -> 9 ;
10 [label="X[0] <= 0.0750\nmse = 14942.6284672\nsamples = 4", shape="box"] ;
9 -> 10 ;
11 [label="X[0] <= 0.0250\nmse = 2064.90821151\nsamples = 2", shape="box"] ;
10 -> 11 ;
12 [label="mse = 0.0000\nsamples = 1\nvalue = [[  4.12393061e-01]
 [  4.82037523e+03]]", shape="box"] ;
11 -> 12 ;
13 [label="mse = 0.0000\nsamples = 1\nvalue = [[  4.17796833e-01]
 [  4.94890253e+03]]", shape="box"] ;
11 -> 13 ;
14 [label="X[0] <= 0.1250\nmse = 4143.18853244\nsamples = 2", shape="box"] ;
10 -> 14 ;
15 [label="mse = 0.0000\nsamples = 1\nvalue = [[  4.23960066e-01]
 [  5.10135703e+03]]", shape="box"] ;
14 -> 15 ;
16 [label="mse = -0.0000\nsamples = 1\nvalue = [[  4.31009092e-01]
 [  5.28341611e+03]]", shape="box"] ;
14 -> 16 ;
17 [label="X[0] <= 0.0750\nmse = 21112.1119247\nsamples = 8", shape="box"] ;
9 -> 17 ;
18 [label="X[2] <= 0.2025\nmse = 8407.2877766\nsamples = 4", shape="box"] ;
17 -> 18 ;
19 [label="X[0] <= 0.0250\nmse = 2087.92543776\nsamples = 2", shape="box"] ;
18 -> 19 ;
20 [label="mse = 0.0000\nsamples = 1\nvalue = [[  4.29441945e-01]
 [  5.06212973e+03]]", shape="box"] ;
19 -> 20 ;
21 [label="mse = 0.0000\nsamples = 1\nvalue = [[  4.34707031e-01]
 [  5.19137138e+03]]", shape="box"] ;
19 -> 21 ;
22 [label="X[0] <= 0.0250\nmse = 1973.68256479\nsamples = 2", shape="box"] ;
18 -> 22 ;
23 [label="mse = 0.0000\nsamples = 1\nvalue = [[  4.45403427e-01]
 [  5.28978057e+03]]", shape="box"] ;
22 -> 23 ;
24 [label="mse = 0.0000\nsamples = 1\nvalue = [[  4.50383700e-01]
 [  5.41543669e+03]]", shape="box"] ;
22 -> 24 ;
25 [label="X[2] <= 0.2025\nmse = 10177.7921039\nsamples = 4", shape="box"] ;
17 -> 25 ;
26 [label="X[0] <= 0.1250\nmse = 4267.34810067\nsamples = 2", shape="box"] ;
25 -> 26 ;
27 [label="mse = 0.0000\nsamples = 1\nvalue = [[  4.40744293e-01]
 [  5.34536984e+03]]", shape="box"] ;
26 -> 27 ;
28 [label="mse = 0.0000\nsamples = 1\nvalue = [[  4.47688179e-01]
 [  5.53013668e+03]]", shape="box"] ;
26 -> 28 ;
29 [label="X[0] <= 0.1250\nmse = 4113.99890673\nsamples = 2", shape="box"] ;
25 -> 29 ;
30 [label="mse = 0.0000\nsamples = 1\nvalue = [[  4.56128899e-01]
 [  5.56589867e+03]]", shape="box"] ;
29 -> 30 ;
31 [label="mse = 0.0000\nsamples = 1\nvalue = [[  4.62778643e-01]
 [  5.74731529e+03]]", shape="box"] ;
29 -> 31 ;
32 [label="X[2] <= 0.1875\nmse = 31158.1038132\nsamples = 12", shape="box"] ;
8 -> 32 ;
33 [label="X[0] <= 0.0750\nmse = 14858.0148781\nsamples = 4", shape="box"] ;
32 -> 33 ;
34 [label="X[0] <= 0.0250\nmse = 2046.5544152\nsamples = 2", shape="box"] ;
33 -> 34 ;
35 [label="mse = 0.0000\nsamples = 1\nvalue = [[  4.30581578e-01]
 [  5.16364274e+03]]", shape="box"] ;
34 -> 35 ;
36 [label="mse = -0.0000\nsamples = 1\nvalue = [[  4.35652815e-01]
 [  5.29159756e+03]]", shape="box"] ;
34 -> 36 ;
37 [label="X[0] <= 0.1250\nmse = 4130.65784589\nsamples = 2", shape="box"] ;
33 -> 37 ;
38 [label="mse = 0.0000\nsamples = 1\nvalue = [[  4.41459168e-01]
 [  5.44357568e+03]]", shape="box"] ;
37 -> 38 ;
39 [label="mse = 0.0000\nsamples = 1\nvalue = [[  4.48131013e-01]
 [  5.62535924e+03]]", shape="box"] ;
37 -> 39 ;
40 [label="X[0] <= 0.0750\nmse = 19406.1330938\nsamples = 8", shape="box"] ;
32 -> 40 ;
41 [label="X[2] <= 0.2025\nmse = 7907.7324487\nsamples = 4", shape="box"] ;
40 -> 41 ;
42 [label="X[0] <= 0.0250\nmse = 1961.7648585\nsamples = 2", shape="box"] ;
41 -> 42 ;
43 [label="mse = 0.0000\nsamples = 1\nvalue = [[  4.47131028e-01]
 [  5.40660468e+03]]", shape="box"] ;
42 -> 43 ;
44 [label="mse = -0.0000\nsamples = 1\nvalue = [[  4.51925652e-01]
 [  5.53188085e+03]]", shape="box"] ;
42 -> 44 ;
45 [label="X[0] <= 0.0250\nmse = 1769.99523828\nsamples = 2", shape="box"] ;
41 -> 45 ;
46 [label="mse = 0.0000\nsamples = 1\nvalue = [[  4.62374703e-01]
 [  5.62959676e+03]]", shape="box"] ;
45 -> 46 ;
47 [label="mse = -0.0000\nsamples = 1\nvalue = [[  4.66785726e-01]
 [  5.74859240e+03]]", shape="box"] ;
45 -> 47 ;
48 [label="X[2] <= 0.2025\nmse = 9167.25502739\nsamples = 4", shape="box"] ;
40 -> 48 ;
49 [label="X[0] <= 0.1250\nmse = 4025.33901483\nsamples = 2", shape="box"] ;
48 -> 49 ;
50 [label="mse = 0.0000\nsamples = 1\nvalue = [[  4.57445670e-01]
 [  5.68128553e+03]]", shape="box"] ;
49 -> 50 ;
51 [label="mse = -0.0000\nsamples = 1\nvalue = [[  4.63825760e-01]
 [  5.86073667e+03]]", shape="box"] ;
49 -> 51 ;
52 [label="X[0] <= 0.1250\nmse = 3694.21075779\nsamples = 2", shape="box"] ;
48 -> 52 ;
53 [label="mse = 0.0000\nsamples = 1\nvalue = [[  4.71894193e-01]
 [  5.89111303e+03]]", shape="box"] ;
52 -> 53 ;
54 [label="mse = -0.0000\nsamples = 1\nvalue = [[  4.77835542e-01]
 [  6.06302488e+03]]", shape="box"] ;
52 -> 54 ;
55 [label="X[2] <= 0.1875\nmse = 38205.723777\nsamples = 12", shape="box"] ;
7 -> 55 ;
56 [label="X[3] <= 0.1250\nmse = 23441.1933654\nsamples = 4", shape="box"] ;
55 -> 56 ;
57 [label="X[0] <= 0.2250\nmse = 8752.89355711\nsamples = 2", shape="box"] ;
56 -> 57 ;
58 [label="mse = 0.0000\nsamples = 1\nvalue = [[  4.39085443e-01]
 [  5.50225295e+03]]", shape="box"] ;
57 -> 58 ;
59 [label="mse = 0.0000\nsamples = 1\nvalue = [[  4.48341409e-01]
 [  5.76687182e+03]]", shape="box"] ;
57 -> 59 ;
60 [label="X[0] <= 0.2250\nmse = 8807.92326369\nsamples = 2", shape="box"] ;
56 -> 60 ;
61 [label="mse = 0.0000\nsamples = 1\nvalue = [[  4.55818121e-01]
 [  5.84430853e+03]]", shape="box"] ;
60 -> 61 ;
62 [label="mse = 0.0000\nsamples = 1\nvalue = [[  4.64687277e-01]
 [  6.10975793e+03]]", shape="box"] ;
60 -> 62 ;
63 [label="X[3] <= 0.1250\nmse = 25826.2973235\nsamples = 8", shape="box"] ;
55 -> 63 ;
64 [label="X[0] <= 0.2250\nmse = 14799.3577162\nsamples = 4", shape="box"] ;
63 -> 64 ;
65 [label="X[2] <= 0.2025\nmse = 5736.70228671\nsamples = 2", shape="box"] ;
64 -> 65 ;
66 [label="mse = 0.0000\nsamples = 1\nvalue = [[  4.55691073e-01]
 [  5.75331302e+03]]", shape="box"] ;
65 -> 66 ;
67 [label="mse = 0.0000\nsamples = 1\nvalue = [[  4.70493050e-01]
 [  5.96754098e+03]]", shape="box"] ;
65 -> 67 ;
68 [label="X[2] <= 0.2025\nmse = 5618.38764327\nsamples = 2", shape="box"] ;
64 -> 68 ;
69 [label="mse = 0.0000\nsamples = 1\nvalue = [[  4.64919469e-01]
 [  6.02456128e+03]]", shape="box"] ;
68 -> 69 ;
70 [label="mse = 0.0000\nsamples = 1\nvalue = [[  4.79449696e-01]
 [  6.23656859e+03]]", shape="box"] ;
68 -> 70 ;
71 [label="X[0] <= 0.2250\nmse = 12939.0878441\nsamples = 4", shape="box"] ;
63 -> 71 ;
72 [label="X[2] <= 0.2025\nmse = 4707.38690438\nsamples = 2", shape="box"] ;
71 -> 72 ;
73 [label="mse = 0.0000\nsamples = 1\nvalue = [[  4.71222435e-01]
 [  6.07780495e+03]]", shape="box"] ;
72 -> 73 ;
74 [label="mse = 0.0000\nsamples = 1\nvalue = [[  4.84768926e-01]
 [  6.27186447e+03]]", shape="box"] ;
72 -> 74 ;
75 [label="X[2] <= 0.2025\nmse = 4285.01703296\nsamples = 2", shape="box"] ;
71 -> 75 ;
76 [label="mse = 0.0000\nsamples = 1\nvalue = [[  4.79812511e-01]
 [  6.34215076e+03]]", shape="box"] ;
75 -> 76 ;
77 [label="mse = -0.0000\nsamples = 1\nvalue = [[  4.92876566e-01]
 [  6.52729972e+03]]", shape="box"] ;
75 -> 77 ;
78 [label="X[0] <= 0.1750\nmse = 47519.266228\nsamples = 84", shape="box"] ;
6 -> 78 ;
79 [label="X[2] <= 0.2625\nmse = 37100.9437111\nsamples = 56", shape="box"] ;
78 -> 79 ;
80 [label="X[3] <= 0.1250\nmse = 29132.0423147\nsamples = 24", shape="box"] ;
79 -> 80 ;
81 [label="X[0] <= 0.0750\nmse = 19165.1323102\nsamples = 12", shape="box"] ;
80 -> 81 ;
82 [label="X[2] <= 0.2325\nmse = 10895.5740383\nsamples = 6", shape="box"] ;
81 -> 82 ;
83 [label="X[0] <= 0.0250\nmse = 1752.90394678\nsamples = 2", shape="box"] ;
82 -> 83 ;
84 [label="mse = 0.0000\nsamples = 1\nvalue = [[  4.60086291e-01]
 [  5.49788519e+03]]", shape="box"] ;
83 -> 84 ;
85 [label="mse = -0.0000\nsamples = 1\nvalue = [[  4.64667929e-01]
 [  5.61630492e+03]]", shape="box"] ;
83 -> 85 ;
86 [label="X[2] <= 0.2475\nmse = 4348.5662238\nsamples = 4", shape="box"] ;
82 -> 86 ;
87 [label="X[0] <= 0.0250\nmse = 1469.64005684\nsamples = 2", shape="box"] ;
86 -> 87 ;
88 [label="mse = 0.0000\nsamples = 1\nvalue = [[  4.73381553e-01]
 [  5.68332256e+03]]", shape="box"] ;
87 -> 88 ;
89 [label="mse = 0.0000\nsamples = 1\nvalue = [[  4.77478653e-01]
 [  5.79175281e+03]]", shape="box"] ;
87 -> 89 ;
90 [label="X[0] <= 0.0250\nmse = 1168.38446284\nsamples = 2", shape="box"] ;
86 -> 90 ;
91 [label="mse = 0.0000\nsamples = 1\nvalue = [[  4.85231646e-01]
 [  5.84487809e+03]]", shape="box"] ;
90 -> 91 ;
92 [label="mse = 0.0000\nsamples = 1\nvalue = [[  4.88780564e-01]
 [  5.94155836e+03]]", shape="box"] ;
90 -> 92 ;
93 [label="X[2] <= 0.2325\nmse = 10022.2414623\nsamples = 6", shape="box"] ;
81 -> 93 ;
94 [label="X[0] <= 0.1250\nmse = 3731.31252539\nsamples = 2", shape="box"] ;
93 -> 94 ;
95 [label="mse = 0.0000\nsamples = 1\nvalue = [[  4.69987829e-01]
 [  5.75885439e+03]]", shape="box"] ;
94 -> 95 ;
96 [label="mse = 0.0000\nsamples = 1\nvalue = [[  4.76187225e-01]
 [  5.93162736e+03]]", shape="box"] ;
94 -> 96 ;
97 [label="X[0] <= 0.1250\nmse = 4958.67132832\nsamples = 4", shape="box"] ;
93 -> 97 ;
98 [label="X[2] <= 0.2475\nmse = 2320.61559497\nsamples = 2", shape="box"] ;
97 -> 98 ;
99 [label="mse = 0.0000\nsamples = 1\nvalue = [[  4.82268230e-01]
 [  5.92301084e+03]]", shape="box"] ;
98 -> 99 ;
100 [label="mse = 0.0000\nsamples = 1\nvalue = [[  4.92957400e-01]
 [  6.05926401e+03]]", shape="box"] ;
98 -> 100 ;
101 [label="X[2] <= 0.2475\nmse = 1815.20262057\nsamples = 2", shape="box"] ;
97 -> 101 ;
102 [label="mse = 0.0000\nsamples = 1\nvalue = [[  4.87888714e-01]
 [  6.08295726e+03]]", shape="box"] ;
101 -> 102 ;
103 [label="mse = 0.0000\nsamples = 1\nvalue = [[  4.97892439e-01]
 [  6.20346294e+03]]", shape="box"] ;
101 -> 103 ;
104 [label="X[0] <= 0.0750\nmse = 16057.0986914\nsamples = 12", shape="box"] ;
80 -> 104 ;
105 [label="X[2] <= 0.2325\nmse = 9347.15895934\nsamples = 6", shape="box"] ;
104 -> 105 ;
106 [label="X[0] <= 0.0250\nmse = 1510.9401973\nsamples = 2", shape="box"] ;
105 -> 106 ;
107 [label="mse = 0.0000\nsamples = 1\nvalue = [[  4.76207760e-01]
 [  5.82910066e+03]]", shape="box"] ;
106 -> 107 ;
108 [label="mse = -0.0000\nsamples = 1\nvalue = [[  4.80155337e-01]
 [  5.93904393e+03]]", shape="box"] ;
106 -> 108 ;
109 [label="X[2] <= 0.2475\nmse = 3640.27829204\nsamples = 4", shape="box"] ;
105 -> 109 ;
110 [label="X[0] <= 0.0250\nmse = 1226.5659665\nsamples = 2", shape="box"] ;
109 -> 110 ;
111 [label="mse = 0.0000\nsamples = 1\nvalue = [[  4.88573121e-01]
 [  6.00342460e+03]]", shape="box"] ;
110 -> 111 ;
112 [label="mse = 0.0000\nsamples = 1\nvalue = [[  4.91998733e-01]
 [  6.10248281e+03]]", shape="box"] ;
110 -> 112 ;
113 [label="X[0] <= 0.0250\nmse = 951.636543951\nsamples = 2", shape="box"] ;
109 -> 113 ;
114 [label="mse = 0.0000\nsamples = 1\nvalue = [[  4.99438150e-01]
 [  6.15218872e+03]]", shape="box"] ;
113 -> 114 ;
115 [label="mse = -0.0000\nsamples = 1\nvalue = [[  5.02298995e-01]
 [  6.23944175e+03]]", shape="box"] ;
113 -> 115 ;
116 [label="X[2] <= 0.2325\nmse = 8234.65182958\nsamples = 6", shape="box"] ;
104 -> 116 ;
117 [label="X[0] <= 0.1250\nmse = 3208.19626124\nsamples = 2", shape="box"] ;
116 -> 117 ;
118 [label="mse = 0.0000\nsamples = 1\nvalue = [[  4.84754794e-01]
 [  6.07129758e+03]]", shape="box"] ;
117 -> 118 ;
119 [label="mse = 0.0000\nsamples = 1\nvalue = [[  4.90138045e-01]
 [  6.23150235e+03]]", shape="box"] ;
117 -> 119 ;
120 [label="X[0] <= 0.1250\nmse = 4016.27421845\nsamples = 4", shape="box"] ;
116 -> 120 ;
121 [label="X[2] <= 0.2475\nmse = 1894.41121145\nsamples = 2", shape="box"] ;
120 -> 121 ;
122 [label="mse = 0.0000\nsamples = 1\nvalue = [[  4.96013626e-01]
 [  6.22215141e+03]]", shape="box"] ;
121 -> 122 ;
123 [label="mse = 0.0000\nsamples = 1\nvalue = [[  5.05670385e-01]
 [  6.34525823e+03]]", shape="box"] ;
121 -> 123 ;
124 [label="X[2] <= 0.2475\nmse = 1422.99942454\nsamples = 2", shape="box"] ;
120 -> 124 ;
125 [label="mse = 0.0000\nsamples = 1\nvalue = [[  5.00741135e-01]
 [  6.36769064e+03]]", shape="box"] ;
124 -> 125 ;
126 [label="mse = -0.0000\nsamples = 1\nvalue = [[  5.09661427e-01]
 [  6.47438645e+03]]", shape="box"] ;
124 -> 126 ;
127 [label="X[3] <= 0.1250\nmse = 14844.8008936\nsamples = 32", shape="box"] ;
79 -> 127 ;
128 [label="X[0] <= 0.0750\nmse = 7837.53189294\nsamples = 16", shape="box"] ;
127 -> 128 ;
129 [label="X[2] <= 0.2925\nmse = 5395.82800627\nsamples = 8", shape="box"] ;
128 -> 129 ;
130 [label="X[2] <= 0.2775\nmse = 2236.26022189\nsamples = 4", shape="box"] ;
129 -> 130 ;
131 [label="X[0] <= 0.0250\nmse = 884.506850931\nsamples = 2", shape="box"] ;
130 -> 131 ;
132 [label="mse = 0.0000\nsamples = 1\nvalue = [[  4.95606386e-01]
 [  5.98266759e+03]]", shape="box"] ;
131 -> 132 ;
133 [label="mse = 0.0000\nsamples = 1\nvalue = [[  4.98560382e-01]
 [  6.06678688e+03]]", shape="box"] ;
131 -> 133 ;
134 [label="X[0] <= 0.0250\nmse = 640.113414051\nsamples = 2", shape="box"] ;
130 -> 134 ;
135 [label="mse = 0.0000\nsamples = 1\nvalue = [[  5.04486995e-01]
 [  6.09753611e+03]]", shape="box"] ;
134 -> 135 ;
136 [label="mse = -0.0000\nsamples = 1\nvalue = [[  5.06812435e-01]
 [  6.16909663e+03]]", shape="box"] ;
134 -> 136 ;
137 [label="X[2] <= 0.3075\nmse = 927.185117466\nsamples = 4", shape="box"] ;
129 -> 137 ;
138 [label="X[0] <= 0.0250\nmse = 444.698811554\nsamples = 2", shape="box"] ;
137 -> 138 ;
139 [label="mse = 0.0000\nsamples = 1\nvalue = [[  5.11858416e-01]
 [  6.19054158e+03]]", shape="box"] ;
138 -> 139 ;
140 [label="mse = -0.0000\nsamples = 1\nvalue = [[  5.13533371e-01]
 [  6.25018712e+03]]", shape="box"] ;
138 -> 140 ;
141 [label="X[0] <= 0.0250\nmse = 298.335487156\nsamples = 2", shape="box"] ;
137 -> 141 ;
142 [label="mse = 0.0000\nsamples = 1\nvalue = [[  5.17709615e-01]
 [  6.26261091e+03]]", shape="box"] ;
141 -> 142 ;
143 [label="mse = 0.0000\nsamples = 1\nvalue = [[  5.18725271e-01]
 [  6.31146461e+03]]", shape="box"] ;
141 -> 143 ;
144 [label="X[2] <= 0.2925\nmse = 3508.67997505\nsamples = 8", shape="box"] ;
128 -> 144 ;
145 [label="X[0] <= 0.1250\nmse = 2512.66193385\nsamples = 4", shape="box"] ;
144 -> 145 ;
146 [label="X[2] <= 0.2775\nmse = 954.129322123\nsamples = 2", shape="box"] ;
145 -> 146 ;
147 [label="mse = 0.0000\nsamples = 1\nvalue = [[  5.02059782e-01]
 [  6.16976624e+03]]", shape="box"] ;
146 -> 147 ;
148 [label="mse = -0.0000\nsamples = 1\nvalue = [[  5.09584572e-01]
 [  6.25713348e+03]]", shape="box"] ;
146 -> 148 ;
149 [label="X[2] <= 0.2775\nmse = 602.14228922\nsamples = 2", shape="box"] ;
145 -> 149 ;
150 [label="mse = 0.0000\nsamples = 1\nvalue = [[  5.06220671e-01]
 [  6.29654437e+03]]", shape="box"] ;
149 -> 150 ;
151 [label="mse = 0.0000\nsamples = 1\nvalue = [[  5.12899047e-01]
 [  6.36594998e+03]]", shape="box"] ;
149 -> 151 ;
152 [label="X[0] <= 0.1250\nmse = 1073.11826846\nsamples = 4", shape="box"] ;
144 -> 152 ;
153 [label="X[2] <= 0.3075\nmse = 289.459263036\nsamples = 2", shape="box"] ;
152 -> 153 ;
154 [label="mse = 0.0000\nsamples = 1\nvalue = [[  5.15543294e-01]
 [  6.32385756e+03]]", shape="box"] ;
153 -> 154 ;
155 [label="mse = -0.0000\nsamples = 1\nvalue = [[  5.19956111e-01]
 [  6.37197901e+03]]", shape="box"] ;
153 -> 155 ;
156 [label="X[2] <= 0.3075\nmse = 127.082047627\nsamples = 2", shape="box"] ;
152 -> 156 ;
157 [label="mse = 0.0000\nsamples = 1\nvalue = [[  5.17957767e-01]
 [  6.41515497e+03]]", shape="box"] ;
156 -> 157 ;
158 [label="mse = 0.0000\nsamples = 1\nvalue = [[  5.21441719e-01]
 [  6.44704002e+03]]", shape="box"] ;
156 -> 158 ;
159 [label="X[0] <= 0.0750\nmse = 5629.28843699\nsamples = 16", shape="box"] ;
127 -> 159 ;
160 [label="X[2] <= 0.2925\nmse = 3609.60169684\nsamples = 8", shape="box"] ;
159 -> 160 ;
161 [label="X[2] <= 0.2775\nmse = 1699.91511407\nsamples = 4", shape="box"] ;
160 -> 161 ;
162 [label="X[0] <= 0.0250\nmse = 709.081865348\nsamples = 2", shape="box"] ;
161 -> 162 ;
163 [label="mse = 0.0000\nsamples = 1\nvalue = [[  5.08779133e-01]
 [  6.27578416e+03]]", shape="box"] ;
162 -> 163 ;
164 [label="mse = 0.0000\nsamples = 1\nvalue = [[  5.11043969e-01]
 [  6.35110119e+03]]", shape="box"] ;
162 -> 164 ;
165 [label="X[0] <= 0.0250\nmse = 510.017018508\nsamples = 2", shape="box"] ;
161 -> 165 ;
166 [label="mse = 0.0000\nsamples = 1\nvalue = [[  5.16573652e-01]
 [  6.37490131e+03]]", shape="box"] ;
165 -> 166 ;
167 [label="mse = -0.0000\nsamples = 1\nvalue = [[  5.18220965e-01]
 [  6.43877725e+03]]", shape="box"] ;
165 -> 167 ;
168 [label="X[0] <= 0.0250\nmse = 582.433183006\nsamples = 4", shape="box"] ;
160 -> 168 ;
169 [label="X[2] <= 0.3075\nmse = 339.132666322\nsamples = 2", shape="box"] ;
168 -> 169 ;
170 [label="mse = 0.0000\nsamples = 1\nvalue = [[  5.22800691e-01]
 [  6.45021849e+03]]", shape="box"] ;
169 -> 170 ;
171 [label="mse = -0.0000\nsamples = 1\nvalue = [[  5.27448225e-01]
 [  6.50230555e+03]]", shape="box"] ;
169 -> 171 ;
172 [label="X[2] <= 0.3075\nmse = 230.155530133\nsamples = 2", shape="box"] ;
168 -> 172 ;
173 [label="mse = 0.0000\nsamples = 1\nvalue = [[  5.23819685e-01]
 [  6.50361610e+03]]", shape="box"] ;
172 -> 173 ;
174 [label="mse = -0.0000\nsamples = 1\nvalue = [[  5.27842635e-01]
 [  6.54652582e+03]]", shape="box"] ;
172 -> 174 ;
175 [label="X[2] <= 0.2925\nmse = 2323.12130664\nsamples = 8", shape="box"] ;
159 -> 175 ;
176 [label="X[0] <= 0.1250\nmse = 1891.01993304\nsamples = 4", shape="box"] ;
175 -> 176 ;
177 [label="X[2] <= 0.2775\nmse = 683.241476073\nsamples = 2", shape="box"] ;
176 -> 177 ;
178 [label="mse = 0.0000\nsamples = 1\nvalue = [[  5.13726093e-01]
 [  6.44273222e+03]]", shape="box"] ;
177 -> 178 ;
179 [label="mse = -0.0000\nsamples = 1\nvalue = [[  5.20180575e-01]
 [  6.51666416e+03]]", shape="box"] ;
177 -> 179 ;
180 [label="X[2] <= 0.2775\nmse = 409.18976891\nsamples = 2", shape="box"] ;
176 -> 180 ;
181 [label="mse = 0.0000\nsamples = 1\nvalue = [[  5.16914641e-01]
 [  6.55481373e+03]]", shape="box"] ;
180 -> 181 ;
182 [label="mse = 0.0000\nsamples = 1\nvalue = [[  5.22516519e-01]
 [  6.61202839e+03]]", shape="box"] ;
180 -> 182 ;
183 [label="X[0] <= 0.1250\nmse = 748.092271184\nsamples = 4", shape="box"] ;
175 -> 183 ;
184 [label="X[2] <= 0.3075\nmse = 126.120891433\nsamples = 2", shape="box"] ;
183 -> 184 ;
185 [label="mse = 0.0000\nsamples = 1\nvalue = [[  5.25038564e-01]
 [  6.56881772e+03]]", shape="box"] ;
184 -> 185 ;
186 [label="mse = 0.0000\nsamples = 1\nvalue = [[  5.28323191e-01]
 [  6.60058197e+03]]", shape="box"] ;
184 -> 186 ;
187 [label="X[2] <= 0.3075\nmse = 40.6010630493\nsamples = 2", shape="box"] ;
183 -> 187 ;
188 [label="mse = 0.0000\nsamples = 1\nvalue = [[  5.26492699e-01]
 [  6.64861221e+03]]", shape="box"] ;
187 -> 188 ;
189 [label="mse = -0.0000\nsamples = 1\nvalue = [[  5.28895571e-01]
 [  6.66663466e+03]]", shape="box"] ;
187 -> 189 ;
190 [label="X[3] <= 0.1250\nmse = 16381.5239791\nsamples = 28", shape="box"] ;
78 -> 190 ;
191 [label="X[2] <= 0.2475\nmse = 11440.8187735\nsamples = 14", shape="box"] ;
190 -> 191 ;
192 [label="X[0] <= 0.2250\nmse = 9910.13337322\nsamples = 4", shape="box"] ;
191 -> 192 ;
193 [label="X[2] <= 0.2325\nmse = 2335.77099294\nsamples = 2", shape="box"] ;
192 -> 193 ;
194 [label="mse = 0.0000\nsamples = 1\nvalue = [[  4.83429974e-01]
 [  6.14244186e+03]]", shape="box"] ;
193 -> 194 ;
195 [label="mse = 0.0000\nsamples = 1\nvalue = [[  4.94502407e-01]
 [  6.27913922e+03]]", shape="box"] ;
193 -> 195 ;
196 [label="X[2] <= 0.2325\nmse = 1798.71120428\nsamples = 2", shape="box"] ;
192 -> 196 ;
197 [label="mse = 0.0000\nsamples = 1\nvalue = [[  4.91900388e-01]
 [  6.40129782e+03]]", shape="box"] ;
196 -> 197 ;
198 [label="mse = 0.0000\nsamples = 1\nvalue = [[  5.02294068e-01]
 [  6.52125486e+03]]", shape="box"] ;
196 -> 198 ;
199 [label="X[0] <= 0.2250\nmse = 4551.44654749\nsamples = 10", shape="box"] ;
191 -> 199 ;
200 [label="X[2] <= 0.2775\nmse = 1690.84823945\nsamples = 5", shape="box"] ;
199 -> 200 ;
201 [label="X[2] <= 0.2625\nmse = 653.234737556\nsamples = 2", shape="box"] ;
200 -> 201 ;
202 [label="mse = 0.0000\nsamples = 1\nvalue = [[  5.03739634e-01]
 [  6.38121646e+03]]", shape="box"] ;
201 -> 202 ;
203 [label="mse = 0.0000\nsamples = 1\nvalue = [[  5.11180577e-01]
 [  6.45350669e+03]]", shape="box"] ;
201 -> 203 ;
204 [label="X[2] <= 0.2925\nmse = 135.154224034\nsamples = 3", shape="box"] ;
200 -> 204 ;
205 [label="mse = 0.0000\nsamples = 1\nvalue = [[  5.16868306e-01]
 [  6.50110125e+03]]", shape="box"] ;
204 -> 205 ;
206 [label="X[2] <= 0.3075\nmse = 16.8174569193\nsamples = 2", shape="box"] ;
204 -> 206 ;
207 [label="mse = 0.0000\nsamples = 1\nvalue = [[  5.20856114e-01]
 [  6.52870053e+03]]", shape="box"] ;
206 -> 207 ;
208 [label="mse = 0.0000\nsamples = 1\nvalue = [[  5.23222521e-01]
 [  6.54029966e+03]]", shape="box"] ;
206 -> 208 ;
209 [label="X[2] <= 0.2625\nmse = 318.62326418\nsamples = 5", shape="box"] ;
199 -> 209 ;
210 [label="mse = 0.0000\nsamples = 1\nvalue = [[  5.10675580e-01]
 [  6.60162983e+03]]", shape="box"] ;
209 -> 210 ;
211 [label="X[2] <= 0.2775\nmse = 41.5715856102\nsamples = 4", shape="box"] ;
209 -> 211 ;
212 [label="mse = 0.0000\nsamples = 1\nvalue = [[  5.17097188e-01]
 [  6.64889985e+03]]", shape="box"] ;
211 -> 212 ;
213 [label="X[2] <= 0.3075\nmse = 20.956251263\nsamples = 3", shape="box"] ;
211 -> 213 ;
214 [label="X[2] <= 0.2925\nmse = 0.0546012344834\nsamples = 2", shape="box"] ;
213 -> 214 ;
215 [label="mse = 0.0000\nsamples = 1\nvalue = [[  5.21619156e-01]
 [  6.66974985e+03]]", shape="box"] ;
214 -> 215 ;
216 [label="mse = 0.0000\nsamples = 1\nvalue = [[  5.24322823e-01]
 [  6.67041076e+03]]", shape="box"] ;
214 -> 216 ;
217 [label="mse = 0.0000\nsamples = 1\nvalue = [[  5.25332339e-01]
 [  6.65635883e+03]]", shape="box"] ;
213 -> 217 ;
218 [label="X[0] <= 0.2250\nmse = 7957.09393568\nsamples = 14", shape="box"] ;
190 -> 218 ;
219 [label="X[2] <= 0.2475\nmse = 6261.77303269\nsamples = 7", shape="box"] ;
218 -> 219 ;
220 [label="X[2] <= 0.2325\nmse = 1769.1536146\nsamples = 2", shape="box"] ;
219 -> 220 ;
221 [label="mse = 0.0000\nsamples = 1\nvalue = [[  4.96461638e-01]
 [  6.42693055e+03]]", shape="box"] ;
220 -> 221 ;
222 [label="mse = 0.0000\nsamples = 1\nvalue = [[  5.06328639e-01]
 [  6.54589789e+03]]", shape="box"] ;
220 -> 222 ;
223 [label="X[2] <= 0.2625\nmse = 933.1663716\nsamples = 5", shape="box"] ;
219 -> 223 ;
224 [label="mse = 0.0000\nsamples = 1\nvalue = [[  5.14402689e-01]
 [  6.63296412e+03]]", shape="box"] ;
223 -> 224 ;
225 [label="X[2] <= 0.2775\nmse = 245.158622639\nsamples = 4", shape="box"] ;
223 -> 225 ;
226 [label="mse = 0.0000\nsamples = 1\nvalue = [[  5.20715286e-01]
 [  6.69267649e+03]]", shape="box"] ;
225 -> 226 ;
227 [label="X[2] <= 0.2925\nmse = 34.510141322\nsamples = 3", shape="box"] ;
225 -> 227 ;
228 [label="mse = 0.0000\nsamples = 1\nvalue = [[  5.25302154e-01]
 [  6.72929943e+03]]", shape="box"] ;
227 -> 228 ;
229 [label="X[2] <= 0.3075\nmse = 0.0826427642854\nsamples = 2", shape="box"] ;
227 -> 229 ;
230 [label="mse = 0.0000\nsamples = 1\nvalue = [[  5.28217843e-01]
 [  6.74650241e+03]]", shape="box"] ;
229 -> 230 ;
231 [label="mse = -0.0000\nsamples = 1\nvalue = [[  5.29556349e-01]
 [  6.74731551e+03]]", shape="box"] ;
229 -> 231 ;
232 [label="X[2] <= 0.2475\nmse = 2429.24056119\nsamples = 7", shape="box"] ;
218 -> 232 ;
233 [label="X[2] <= 0.2325\nmse = 1215.38572635\nsamples = 2", shape="box"] ;
232 -> 233 ;
234 [label="mse = 0.0000\nsamples = 1\nvalue = [[  5.03906802e-01]
 [  6.66695242e+03]]", shape="box"] ;
233 -> 234 ;
235 [label="mse = -0.0000\nsamples = 1\nvalue = [[  5.12947899e-01]
 [  6.76555813e+03]]", shape="box"] ;
233 -> 235 ;
236 [label="X[2] <= 0.2625\nmse = 133.558158381\nsamples = 5", shape="box"] ;
232 -> 236 ;
237 [label="mse = 0.0000\nsamples = 1\nvalue = [[  5.20046111e-01]
 [  6.82892971e+03]]", shape="box"] ;
236 -> 237 ;
238 [label="X[2] <= 0.3075\nmse = 54.2583522665\nsamples = 4", shape="box"] ;
236 -> 238 ;
239 [label="X[2] <= 0.2775\nmse = 10.3318629063\nsamples = 3", shape="box"] ;
238 -> 239 ;
240 [label="mse = 0.0000\nsamples = 1\nvalue = [[  5.25248797e-01]
 [  6.86319428e+03]]", shape="box"] ;
239 -> 240 ;
241 [label="X[2] <= 0.2925\nmse = 6.59301548752\nsamples = 2", shape="box"] ;
239 -> 241 ;
242 [label="mse = 0.0000\nsamples = 1\nvalue = [[  5.28616349e-01]
 [  6.87413503e+03]]", shape="box"] ;
241 -> 242 ;
243 [label="mse = -0.0000\nsamples = 1\nvalue = [[  5.30243198e-01]
 [  6.86687251e+03]]", shape="box"] ;
241 -> 243 ;
244 [label="mse = -0.0000\nsamples = 1\nvalue = [[  5.30282837e-01]
 [  6.84579395e+03]]", shape="box"] ;
238 -> 244 ;
245 [label="X[0] <= 0.1750\nmse = 53180.090865\nsamples = 480", shape="box"] ;
5 -> 245 ;
246 [label="X[2] <= 0.2025\nmse = 41161.9480378\nsamples = 320", shape="box"] ;
245 -> 246 ;
247 [label="X[3] <= 0.1550\nmse = 63365.1283802\nsamples = 64", shape="box"] ;
246 -> 247 ;
248 [label="X[3] <= 0.1450\nmse = 29202.4759397\nsamples = 16", shape="box"] ;
247 -> 248 ;
249 [label="X[0] <= 0.0750\nmse = 19974.2494117\nsamples = 8", shape="box"] ;
248 -> 249 ;
250 [label="X[2] <= 0.1875\nmse = 8580.94612528\nsamples = 4", shape="box"] ;
249 -> 250 ;
251 [label="X[0] <= 0.0250\nmse = 1934.95825672\nsamples = 2", shape="box"] ;
250 -> 251 ;
252 [label="mse = 0.0000\nsamples = 1\nvalue = [[  4.48506346e-01]
 [  5.49841359e+03]]", shape="box"] ;
251 -> 252 ;
253 [label="mse = 0.0000\nsamples = 1\nvalue = [[  4.53134603e-01]
 [  5.62283090e+03]]", shape="box"] ;
251 -> 253 ;
254 [label="X[0] <= 0.0250\nmse = 1780.32680885\nsamples = 2", shape="box"] ;
250 -> 254 ;
255 [label="mse = 0.0000\nsamples = 1\nvalue = [[  4.64243397e-01]
 [  5.73287004e+03]]", shape="box"] ;
254 -> 255 ;
256 [label="mse = -0.0000\nsamples = 1\nvalue = [[  4.68505572e-01]
 [  5.85221247e+03]]", shape="box"] ;
254 -> 256 ;
257 [label="X[2] <= 0.1875\nmse = 9881.24366906\nsamples = 4", shape="box"] ;
249 -> 257 ;
258 [label="X[0] <= 0.1250\nmse = 3924.88028161\nsamples = 2", shape="box"] ;
257 -> 258 ;
259 [label="mse = 0.0000\nsamples = 1\nvalue = [[  4.58454481e-01]
 [  5.77078343e+03]]", shape="box"] ;
258 -> 259 ;
260 [label="mse = -0.0000\nsamples = 1\nvalue = [[  4.64595985e-01]
 [  5.94798118e+03]]", shape="box"] ;
258 -> 260 ;
261 [label="X[0] <= 0.1250\nmse = 3657.47769276\nsamples = 2", shape="box"] ;
257 -> 261 ;
262 [label="mse = 0.0000\nsamples = 1\nvalue = [[  4.73430194e-01]
 [  5.99458204e+03]]", shape="box"] ;
261 -> 262 ;
263 [label="mse = -0.0000\nsamples = 1\nvalue = [[  4.79147155e-01]
 [  6.16563707e+03]]", shape="box"] ;
261 -> 263 ;
264 [label="X[0] <= 0.0750\nmse = 17637.3314802\nsamples = 8", shape="box"] ;
248 -> 264 ;
265 [label="X[2] <= 0.1875\nmse = 7435.75724923\nsamples = 4", shape="box"] ;
264 -> 265 ;
266 [label="X[0] <= 0.0250\nmse = 1770.5856097\nsamples = 2", shape="box"] ;
265 -> 266 ;
267 [label="mse = 0.0000\nsamples = 1\nvalue = [[  4.65603927e-01]
 [  5.80541774e+03]]", shape="box"] ;
266 -> 267 ;
268 [label="mse = 0.0000\nsamples = 1\nvalue = [[  4.69735491e-01]
 [  5.92443322e+03]]", shape="box"] ;
266 -> 268 ;
269 [label="X[0] <= 0.0250\nmse = 1587.98869591\nsamples = 2", shape="box"] ;
265 -> 269 ;
270 [label="mse = 0.0000\nsamples = 1\nvalue = [[  4.80315329e-01]
 [  6.02316641e+03]]", shape="box"] ;
269 -> 270 ;
271 [label="mse = -0.0000\nsamples = 1\nvalue = [[  4.84029831e-01]
 [  6.13587803e+03]]", shape="box"] ;
269 -> 271 ;
272 [label="X[2] <= 0.1875\nmse = 8423.79254219\nsamples = 4", shape="box"] ;
264 -> 272 ;
273 [label="X[0] <= 0.1250\nmse = 3600.76280378\nsamples = 2", shape="box"] ;
272 -> 273 ;
274 [label="mse = 0.0000\nsamples = 1\nvalue = [[  4.74500924e-01]
 [  6.06606061e+03]]", shape="box"] ;
273 -> 274 ;
275 [label="mse = 0.0000\nsamples = 1\nvalue = [[  4.80025328e-01]
 [  6.23578422e+03]]", shape="box"] ;
273 -> 275 ;
276 [label="X[0] <= 0.1250\nmse = 3251.28464662\nsamples = 2", shape="box"] ;
272 -> 276 ;
277 [label="mse = 0.0000\nsamples = 1\nvalue = [[  4.88332753e-01]
 [  6.27023928e+03]]", shape="box"] ;
276 -> 277 ;
278 [label="mse = -0.0000\nsamples = 1\nvalue = [[  4.93344222e-01]
 [  6.43151630e+03]]", shape="box"] ;
276 -> 278 ;
279 [label="X[3] <= 0.1750\nmse = 20911.7855968\nsamples = 48", shape="box"] ;
247 -> 279 ;
280 [label="X[0] <= 0.0750\nmse = 18444.0092578\nsamples = 16", shape="box"] ;
279 -> 280 ;
281 [label="X[3] <= 0.1650\nmse = 10072.03475\nsamples = 8", shape="box"] ;
280 -> 281 ;
282 [label="X[2] <= 0.1875\nmse = 6101.00588333\nsamples = 4", shape="box"] ;
281 -> 282 ;
283 [label="X[0] <= 0.0250\nmse = 1595.35029422\nsamples = 2", shape="box"] ;
282 -> 283 ;
284 [label="mse = 0.0000\nsamples = 1\nvalue = [[  4.81454468e-01]
 [  6.06863674e+03]]", shape="box"] ;
283 -> 284 ;
285 [label="mse = 0.0000\nsamples = 1\nvalue = [[  4.85076637e-01]
 [  6.18160931e+03]]", shape="box"] ;
283 -> 285 ;
286 [label="X[0] <= 0.0250\nmse = 1419.2712234\nsamples = 2", shape="box"] ;
282 -> 286 ;
287 [label="mse = 0.0000\nsamples = 1\nvalue = [[  4.94991114e-01]
 [  6.26354680e+03]]", shape="box"] ;
286 -> 287 ;
288 [label="mse = -0.0000\nsamples = 1\nvalue = [[  4.98171793e-01]
 [  6.37010275e+03]]", shape="box"] ;
286 -> 288 ;
289 [label="X[2] <= 0.1875\nmse = 4778.83684942\nsamples = 4", shape="box"] ;
281 -> 289 ;
290 [label="X[0] <= 0.0250\nmse = 1440.77241707\nsamples = 2", shape="box"] ;
289 -> 290 ;
291 [label="mse = 0.0000\nsamples = 1\nvalue = [[  4.95750109e-01]
 [  6.27719001e+03]]", shape="box"] ;
290 -> 291 ;
292 [label="mse = -0.0000\nsamples = 1\nvalue = [[  4.98874142e-01]
 [  6.38455005e+03]]", shape="box"] ;
290 -> 292 ;
293 [label="X[0] <= 0.0250\nmse = 1293.22085658\nsamples = 2", shape="box"] ;
289 -> 293 ;
294 [label="mse = 0.0000\nsamples = 1\nvalue = [[  5.07987571e-01]
 [  6.44522410e+03]]", shape="box"] ;
293 -> 294 ;
295 [label="mse = -0.0000\nsamples = 1\nvalue = [[  5.10661153e-01]
 [  6.54693825e+03]]", shape="box"] ;
293 -> 295 ;
296 [label="X[3] <= 0.1650\nmse = 10293.4391759\nsamples = 8", shape="box"] ;
280 -> 296 ;
297 [label="X[2] <= 0.1875\nmse = 6942.6574388\nsamples = 4", shape="box"] ;
296 -> 297 ;
298 [label="X[0] <= 0.1250\nmse = 3239.52046007\nsamples = 2", shape="box"] ;
297 -> 298 ;
299 [label="mse = 0.0000\nsamples = 1\nvalue = [[  4.89265021e-01]
 [  6.31601979e+03]]", shape="box"] ;
298 -> 299 ;
300 [label="mse = 0.0000\nsamples = 1\nvalue = [[  4.94135326e-01]
 [  6.47700477e+03]]", shape="box"] ;
298 -> 300 ;
301 [label="X[0] <= 0.1250\nmse = 2879.51770857\nsamples = 2", shape="box"] ;
297 -> 301 ;
302 [label="mse = 0.0000\nsamples = 1\nvalue = [[  5.01860419e-01]
 [  6.49687693e+03]]", shape="box"] ;
301 -> 302 ;
303 [label="mse = 0.0000\nsamples = 1\nvalue = [[  5.06162724e-01]
 [  6.64865355e+03]]", shape="box"] ;
301 -> 303 ;
304 [label="X[2] <= 0.1875\nmse = 5604.21237724\nsamples = 4", shape="box"] ;
296 -> 304 ;
305 [label="X[0] <= 0.1250\nmse = 2907.52051186\nsamples = 2", shape="box"] ;
304 -> 305 ;
306 [label="mse = 0.0000\nsamples = 1\nvalue = [[  5.02490793e-01]
 [  6.51213188e+03]]", shape="box"] ;
305 -> 306 ;
307 [label="mse = -0.0000\nsamples = 1\nvalue = [[  5.06702186e-01]
 [  6.66464471e+03]]", shape="box"] ;
305 -> 307 ;
308 [label="X[0] <= 0.1250\nmse = 2588.16747338\nsamples = 2", shape="box"] ;
304 -> 308 ;
309 [label="mse = 0.0000\nsamples = 1\nvalue = [[  5.13759750e-01]
 [  6.66760684e+03]]", shape="box"] ;
308 -> 309 ;
310 [label="mse = -0.0000\nsamples = 1\nvalue = [[  5.17370898e-01]
 [  6.81150034e+03]]", shape="box"] ;
308 -> 310 ;
311 [label="X[0] <= 0.0750\nmse = 10278.0309761\nsamples = 32", shape="box"] ;
279 -> 311 ;
312 [label="X[0] <= 0.0250\nmse = 2916.18243709\nsamples = 16", shape="box"] ;
311 -> 312 ;
313 [label="X[2] <= 0.1875\nmse = 1754.28114005\nsamples = 8", shape="box"] ;
312 -> 313 ;
314 [label="X[3] <= 0.1850\nmse = 985.196942741\nsamples = 4", shape="box"] ;
313 -> 314 ;
315 [label="mse = 0.0000\nsamples = 1\nvalue = [[  5.08244948e-01]
 [  6.42575291e+03]]", shape="box"] ;
314 -> 315 ;
316 [label="X[3] <= 0.1950\nmse = 85.5439177585\nsamples = 3", shape="box"] ;
314 -> 316 ;
317 [label="mse = 0.0000\nsamples = 1\nvalue = [[  5.18700750e-01]
 [  6.51366987e+03]]", shape="box"] ;
316 -> 317 ;
318 [label="X[3] <= 0.2050\nmse = 81.2655980857\nsamples = 2", shape="box"] ;
316 -> 318 ;
319 [label="mse = 0.0000\nsamples = 1\nvalue = [[  5.26833876e-01]
 [  6.54322048e+03]]", shape="box"] ;
318 -> 319 ;
320 [label="mse = 0.0000\nsamples = 1\nvalue = [[  5.32269106e-01]
 [  6.51772293e+03]]", shape="box"] ;
318 -> 320 ;
321 [label="X[3] <= 0.2050\nmse = 421.278531295\nsamples = 4", shape="box"] ;
313 -> 321 ;
322 [label="X[3] <= 0.1850\nmse = 351.589750449\nsamples = 3", shape="box"] ;
321 -> 322 ;
323 [label="mse = 0.0000\nsamples = 1\nvalue = [[  5.19047182e-01]
 [  6.56455822e+03]]", shape="box"] ;
322 -> 323 ;
324 [label="X[3] <= 0.1950\nmse = 0.599621494534\nsamples = 2", shape="box"] ;
322 -> 324 ;
325 [label="mse = 0.0000\nsamples = 1\nvalue = [[  5.27887903e-01]
 [  6.62187350e+03]]", shape="box"] ;
324 -> 325 ;
326 [label="mse = -0.0000\nsamples = 1\nvalue = [[  5.34155980e-01]
 [  6.61968331e+03]]", shape="box"] ;
324 -> 326 ;
327 [label="mse = 0.0000\nsamples = 1\nvalue = [[  5.37389083e-01]
 [  6.56103932e+03]]", shape="box"] ;
321 -> 327 ;
328 [label="X[2] <= 0.1875\nmse = 1655.00742055\nsamples = 8", shape="box"] ;
312 -> 328 ;
329 [label="X[3] <= 0.1850\nmse = 901.69428953\nsamples = 4", shape="box"] ;
328 -> 329 ;
330 [label="mse = 0.0000\nsamples = 1\nvalue = [[  5.10891395e-01]
 [  6.52865470e+03]]", shape="box"] ;
329 -> 330 ;
331 [label="X[3] <= 0.1950\nmse = 81.5298097644\nsamples = 3", shape="box"] ;
329 -> 331 ;
332 [label="mse = 0.0000\nsamples = 1\nvalue = [[  5.20888348e-01]
 [  6.61354625e+03]]", shape="box"] ;
331 -> 332 ;
333 [label="X[3] <= 0.2050\nmse = 86.3051167852\nsamples = 2", shape="box"] ;
331 -> 333 ;
334 [label="mse = 0.0000\nsamples = 1\nvalue = [[  5.28573323e-01]
 [  6.64137918e+03]]", shape="box"] ;
333 -> 334 ;
335 [label="mse = 0.0000\nsamples = 1\nvalue = [[  5.33562875e-01]
 [  6.61510294e+03]]", shape="box"] ;
333 -> 335 ;
336 [label="X[3] <= 0.2050\nmse = 408.54881394\nsamples = 4", shape="box"] ;
328 -> 336 ;
337 [label="X[3] <= 0.1850\nmse = 330.617310914\nsamples = 3", shape="box"] ;
336 -> 337 ;
338 [label="mse = 0.0000\nsamples = 1\nvalue = [[  5.21240694e-01]
 [  6.66311873e+03]]", shape="box"] ;
337 -> 338 ;
339 [label="X[3] <= 0.1950\nmse = 0.798037540009\nsamples = 2", shape="box"] ;
337 -> 339 ;
340 [label="mse = 0.0000\nsamples = 1\nvalue = [[  5.29621031e-01]
 [  6.71888683e+03]]", shape="box"] ;
339 -> 340 ;
341 [label="mse = 0.0000\nsamples = 1\nvalue = [[  5.35439465e-01]
 [  6.71636012e+03]]", shape="box"] ;
339 -> 341 ;
342 [label="mse = -0.0000\nsamples = 1\nvalue = [[  5.38229426e-01]
 [  6.65806784e+03]]", shape="box"] ;
336 -> 342 ;
343 [label="X[0] <= 0.1250\nmse = 3846.73151328\nsamples = 16", shape="box"] ;
311 -> 343 ;
344 [label="X[2] <= 0.1875\nmse = 1534.27958399\nsamples = 8", shape="box"] ;
343 -> 344 ;
345 [label="X[3] <= 0.1850\nmse = 805.032504188\nsamples = 4", shape="box"] ;
344 -> 345 ;
346 [label="mse = 0.0000\nsamples = 1\nvalue = [[  5.13954207e-01]
 [  6.65071803e+03]]", shape="box"] ;
345 -> 346 ;
347 [label="X[3] <= 0.2050\nmse = 77.5582775371\nsamples = 3", shape="box"] ;
345 -> 347 ;
348 [label="X[3] <= 0.1950\nmse = 82.8300166512\nsamples = 2", shape="box"] ;
347 -> 348 ;
349 [label="mse = 0.0000\nsamples = 1\nvalue = [[  5.23415913e-01]
 [  6.73182898e+03]]", shape="box"] ;
348 -> 349 ;
350 [label="mse = -0.0000\nsamples = 1\nvalue = [[  5.30578139e-01]
 [  6.75757078e+03]]", shape="box"] ;
348 -> 350 ;
351 [label="mse = 0.0000\nsamples = 1\nvalue = [[  5.35051024e-01]
 [  6.73052087e+03]]", shape="box"] ;
347 -> 351 ;
352 [label="X[3] <= 0.2050\nmse = 390.461757465\nsamples = 4", shape="box"] ;
344 -> 352 ;
353 [label="X[3] <= 0.1850\nmse = 304.91444166\nsamples = 3", shape="box"] ;
352 -> 353 ;
354 [label="mse = 0.0000\nsamples = 1\nvalue = [[  5.23776990e-01]
 [  6.77971816e+03]]", shape="box"] ;
353 -> 354 ;
355 [label="X[3] <= 0.1950\nmse = 1.02453693246\nsamples = 2", shape="box"] ;
353 -> 355 ;
356 [label="mse = 0.0000\nsamples = 1\nvalue = [[  5.31617786e-01]
 [  6.83347631e+03]]", shape="box"] ;
355 -> 356 ;
357 [label="mse = 0.0000\nsamples = 1\nvalue = [[  5.36912465e-01]
 [  6.83061339e+03]]", shape="box"] ;
355 -> 357 ;
358 [label="mse = 0.0000\nsamples = 1\nvalue = [[  5.39192586e-01]
 [  6.77306216e+03]]", shape="box"] ;
352 -> 358 ;
359 [label="X[2] <= 0.1875\nmse = 1382.34124537\nsamples = 8", shape="box"] ;
343 -> 359 ;
360 [label="X[3] <= 0.1850\nmse = 688.367388275\nsamples = 4", shape="box"] ;
359 -> 360 ;
361 [label="mse = 0.0000\nsamples = 1\nvalue = [[  5.17518464e-01]
 [  6.79620164e+03]]", shape="box"] ;
360 -> 361 ;
362 [label="X[3] <= 0.2050\nmse = 74.2477834544\nsamples = 3", shape="box"] ;
360 -> 362 ;
363 [label="X[3] <= 0.1950\nmse = 65.952984803\nsamples = 2", shape="box"] ;
362 -> 363 ;
364 [label="mse = 0.0000\nsamples = 1\nvalue = [[  5.26349152e-01]
 [  6.87236913e+03]]", shape="box"] ;
363 -> 364 ;
365 [label="mse = 0.0000\nsamples = 1\nvalue = [[  5.32893659e-01]
 [  6.89533920e+03]]", shape="box"] ;
363 -> 365 ;
366 [label="mse = -0.0000\nsamples = 1\nvalue = [[  5.36758913e-01]
 [  6.86734623e+03]]", shape="box"] ;
362 -> 366 ;
367 [label="X[3] <= 0.2050\nmse = 366.166492314\nsamples = 4", shape="box"] ;
359 -> 367 ;
368 [label="X[3] <= 0.1850\nmse = 270.112699962\nsamples = 3", shape="box"] ;
367 -> 368 ;
369 [label="mse = 0.0000\nsamples = 1\nvalue = [[  5.26722895e-01]
 [  6.91815365e+03]]", shape="box"] ;
368 -> 369 ;
370 [label="X[3] <= 0.1950\nmse = 1.45338734833\nsamples = 2", shape="box"] ;
368 -> 370 ;
371 [label="mse = 0.0000\nsamples = 1\nvalue = [[  5.33923321e-01]
 [  6.96907538e+03]]", shape="box"] ;
370 -> 371 ;
372 [label="mse = 0.0000\nsamples = 1\nvalue = [[  5.38599087e-01]
 [  6.96566553e+03]]", shape="box"] ;
370 -> 372 ;
373 [label="mse = -0.0000\nsamples = 1\nvalue = [[  5.40283882e-01]
 [  6.90919317e+03]]", shape="box"] ;
367 -> 373 ;
374 [label="X[0] <= 0.0750\nmse = 28167.4740497\nsamples = 256", shape="box"] ;
246 -> 374 ;
375 [label="X[3] <= 0.2050\nmse = 25063.9764834\nsamples = 128", shape="box"] ;
374 -> 375 ;
376 [label="X[3] <= 0.1450\nmse = 19589.0858385\nsamples = 112", shape="box"] ;
375 -> 376 ;
377 [label="X[2] <= 0.2475\nmse = 28764.4905333\nsamples = 16", shape="box"] ;
376 -> 377 ;
378 [label="X[2] <= 0.2175\nmse = 10507.3049179\nsamples = 6", shape="box"] ;
377 -> 378 ;
379 [label="X[0] <= 0.0250\nmse = 1555.39594614\nsamples = 2", shape="box"] ;
378 -> 379 ;
380 [label="mse = 0.0000\nsamples = 1\nvalue = [[  4.78550344e-01]
 [  5.94334782e+03]]", shape="box"] ;
379 -> 380 ;
381 [label="mse = 0.0000\nsamples = 1\nvalue = [[  4.82371807e-01]
 [  6.05489677e+03]]", shape="box"] ;
379 -> 381 ;
382 [label="X[2] <= 0.2325\nmse = 4071.86409436\nsamples = 4", shape="box"] ;
378 -> 382 ;
383 [label="X[0] <= 0.0250\nmse = 1297.75679016\nsamples = 2", shape="box"] ;
382 -> 383 ;
384 [label="mse = 0.0000\nsamples = 1\nvalue = [[  4.91371595e-01]
 [  6.12784750e+03]]", shape="box"] ;
383 -> 384 ;
385 [label="mse = -0.0000\nsamples = 1\nvalue = [[  4.94698020e-01]
 [  6.22973986e+03]]", shape="box"] ;
383 -> 385 ;
386 [label="X[0] <= 0.0250\nmse = 1040.0651902\nsamples = 2", shape="box"] ;
382 -> 386 ;
387 [label="mse = 0.0000\nsamples = 1\nvalue = [[  5.02672041e-01]
 [  6.28557823e+03]]", shape="box"] ;
386 -> 387 ;
388 [label="mse = 0.0000\nsamples = 1\nvalue = [[  5.05463714e-01]
 [  6.37679512e+03]]", shape="box"] ;
386 -> 388 ;
389 [label="X[2] <= 0.2775\nmse = 4408.49250661\nsamples = 10", shape="box"] ;
377 -> 389 ;
390 [label="X[2] <= 0.2625\nmse = 1931.58093694\nsamples = 4", shape="box"] ;
389 -> 390 ;
391 [label="X[0] <= 0.0250\nmse = 805.197348693\nsamples = 2", shape="box"] ;
390 -> 391 ;
392 [label="mse = 0.0000\nsamples = 1\nvalue = [[  5.12422427e-01]
 [  6.41648749e+03]]", shape="box"] ;
391 -> 392 ;
393 [label="mse = 0.0000\nsamples = 1\nvalue = [[  5.14649840e-01]
 [  6.49674694e+03]]", shape="box"] ;
391 -> 393 ;
394 [label="X[0] <= 0.0250\nmse = 605.651668081\nsamples = 2", shape="box"] ;
390 -> 394 ;
395 [label="mse = 0.0000\nsamples = 1\nvalue = [[  5.20592101e-01]
 [  6.52085510e+03]]", shape="box"] ;
394 -> 395 ;
396 [label="mse = 0.0000\nsamples = 1\nvalue = [[  5.22233808e-01]
 [  6.59046266e+03]]", shape="box"] ;
394 -> 396 ;
397 [label="X[2] <= 0.2925\nmse = 775.996838557\nsamples = 6", shape="box"] ;
389 -> 397 ;
398 [label="X[0] <= 0.0250\nmse = 445.547951466\nsamples = 2", shape="box"] ;
397 -> 398 ;
399 [label="mse = 0.0000\nsamples = 1\nvalue = [[  5.27149228e-01]
 [  6.59903894e+03]]", shape="box"] ;
398 -> 399 ;
400 [label="mse = -0.0000\nsamples = 1\nvalue = [[  5.28192479e-01]
 [  6.65874140e+03]]", shape="box"] ;
398 -> 400 ;
401 [label="X[0] <= 0.0250\nmse = 347.60485075\nsamples = 4", shape="box"] ;
397 -> 401 ;
402 [label="X[2] <= 0.3075\nmse = 92.3846695249\nsamples = 2", shape="box"] ;
401 -> 402 ;
403 [label="mse = 0.0000\nsamples = 1\nvalue = [[  5.32068404e-01]
 [  6.65142825e+03]]", shape="box"] ;
402 -> 403 ;
404 [label="mse = 0.0000\nsamples = 1\nvalue = [[  5.35345321e-01]
 [  6.67861423e+03]]", shape="box"] ;
402 -> 404 ;
405 [label="X[2] <= 0.3075\nmse = 48.2747104981\nsamples = 2", shape="box"] ;
401 -> 405 ;
406 [label="mse = 0.0000\nsamples = 1\nvalue = [[  5.32512673e-01]
 [  6.70229307e+03]]", shape="box"] ;
405 -> 406 ;
407 [label="mse = -0.0000\nsamples = 1\nvalue = [[  5.35208322e-01]
 [  6.72194498e+03]]", shape="box"] ;
405 -> 407 ;
408 [label="X[3] <= 0.1950\nmse = 12741.5459818\nsamples = 96", shape="box"] ;
376 -> 408 ;
409 [label="X[2] <= 0.2325\nmse = 10212.2802471\nsamples = 80", shape="box"] ;
408 -> 409 ;
410 [label="X[3] <= 0.1650\nmse = 15527.4375907\nsamples = 20", shape="box"] ;
409 -> 410 ;
411 [label="X[3] <= 0.1550\nmse = 9018.2435062\nsamples = 8", shape="box"] ;
410 -> 411 ;
412 [label="X[2] <= 0.2175\nmse = 4432.66648342\nsamples = 4", shape="box"] ;
411 -> 412 ;
413 [label="X[0] <= 0.0250\nmse = 1367.29283057\nsamples = 2", shape="box"] ;
412 -> 413 ;
414 [label="mse = 0.0000\nsamples = 1\nvalue = [[  4.93528052e-01]
 [  6.21461915e+03]]", shape="box"] ;
413 -> 414 ;
415 [label="mse = 0.0000\nsamples = 1\nvalue = [[  4.96774645e-01]
 [  6.31920568e+03]]", shape="box"] ;
413 -> 415 ;
416 [label="X[0] <= 0.0250\nmse = 1137.32414329\nsamples = 2", shape="box"] ;
412 -> 416 ;
417 [label="mse = 0.0000\nsamples = 1\nvalue = [[  5.05204631e-01]
 [  6.37872734e+03]]", shape="box"] ;
416 -> 417 ;
418 [label="mse = -0.0000\nsamples = 1\nvalue = [[  5.07946001e-01]
 [  6.47411388e+03]]", shape="box"] ;
416 -> 418 ;
419 [label="X[2] <= 0.2175\nmse = 3428.62597052\nsamples = 4", shape="box"] ;
411 -> 419 ;
420 [label="X[0] <= 0.0250\nmse = 1227.12426702\nsamples = 2", shape="box"] ;
419 -> 420 ;
421 [label="mse = 0.0000\nsamples = 1\nvalue = [[  5.06980819e-01]
 [  6.43109924e+03]]", shape="box"] ;
420 -> 421 ;
422 [label="mse = -0.0000\nsamples = 1\nvalue = [[  5.09684681e-01]
 [  6.53017999e+03]]", shape="box"] ;
420 -> 422 ;
423 [label="X[0] <= 0.0250\nmse = 1037.18729051\nsamples = 2", shape="box"] ;
419 -> 423 ;
424 [label="mse = 0.0000\nsamples = 1\nvalue = [[  5.17381820e-01]
 [  6.57063679e+03]]", shape="box"] ;
423 -> 424 ;
425 [label="mse = -0.0000\nsamples = 1\nvalue = [[  5.19581419e-01]
 [  6.66172739e+03]]", shape="box"] ;
423 -> 425 ;
426 [label="X[0] <= 0.0250\nmse = 2637.46898009\nsamples = 12", shape="box"] ;
410 -> 426 ;
427 [label="X[2] <= 0.2175\nmse = 1633.65802319\nsamples = 6", shape="box"] ;
426 -> 427 ;
428 [label="X[3] <= 0.1750\nmse = 1238.94535487\nsamples = 3", shape="box"] ;
427 -> 428 ;
429 [label="mse = 0.0000\nsamples = 1\nvalue = [[  5.18621839e-01]
 [  6.58555570e+03]]", shape="box"] ;
428 -> 429 ;
430 [label="X[3] <= 0.1850\nmse = 86.6411418077\nsamples = 2", shape="box"] ;
428 -> 430 ;
431 [label="mse = 0.0000\nsamples = 1\nvalue = [[  5.28160458e-01]
 [  6.67549713e+03]]", shape="box"] ;
430 -> 431 ;
432 [label="mse = 0.0000\nsamples = 1\nvalue = [[  5.35256349e-01]
 [  6.70182447e+03]]", shape="box"] ;
430 -> 432 ;
433 [label="X[3] <= 0.1750\nmse = 368.930474586\nsamples = 3", shape="box"] ;
427 -> 433 ;
434 [label="mse = 0.0000\nsamples = 1\nvalue = [[  5.27592425e-01]
 [  6.69747217e+03]]", shape="box"] ;
433 -> 434 ;
435 [label="X[3] <= 0.1850\nmse = 3.52102342033\nsamples = 2", shape="box"] ;
433 -> 435 ;
436 [label="mse = 0.0000\nsamples = 1\nvalue = [[  5.35498891e-01]
 [  6.75756494e+03]]", shape="box"] ;
435 -> 436 ;
437 [label="mse = -0.0000\nsamples = 1\nvalue = [[  5.40696344e-01]
 [  6.75225757e+03]]", shape="box"] ;
435 -> 437 ;
438 [label="X[2] <= 0.2175\nmse = 1523.58882267\nsamples = 6", shape="box"] ;
426 -> 438 ;
439 [label="X[3] <= 0.1750\nmse = 1202.28055553\nsamples = 3", shape="box"] ;
438 -> 439 ;
440 [label="mse = 0.0000\nsamples = 1\nvalue = [[  5.20818310e-01]
 [  6.68108875e+03]]", shape="box"] ;
439 -> 440 ;
441 [label="X[3] <= 0.1850\nmse = 86.443107487\nsamples = 2", shape="box"] ;
439 -> 441 ;
442 [label="mse = 0.0000\nsamples = 1\nvalue = [[  5.29878770e-01]
 [  6.76943824e+03]]", shape="box"] ;
441 -> 442 ;
443 [label="mse = 0.0000\nsamples = 1\nvalue = [[  5.36516388e-01]
 [  6.79573548e+03]]", shape="box"] ;
441 -> 443 ;
444 [label="X[3] <= 0.1750\nmse = 377.144218483\nsamples = 3", shape="box"] ;
438 -> 444 ;
445 [label="mse = 0.0000\nsamples = 1\nvalue = [[  5.29289504e-01]
 [  6.78660234e+03]]", shape="box"] ;
444 -> 445 ;
446 [label="X[3] <= 0.1850\nmse = 1.92280567905\nsamples = 2", shape="box"] ;
444 -> 446 ;
447 [label="mse = 0.0000\nsamples = 1\nvalue = [[  5.36723514e-01]
 [  6.84672487e+03]]", shape="box"] ;
446 -> 447 ;
448 [label="mse = 0.0000\nsamples = 1\nvalue = [[  5.41470956e-01]
 [  6.84280283e+03]]", shape="box"] ;
446 -> 448 ;
449 [label="X[3] <= 0.1850\nmse = 5342.97117346\nsamples = 60", shape="box"] ;
409 -> 449 ;
450 [label="X[3] <= 0.1550\nmse = 3781.65867534\nsamples = 48", shape="box"] ;
449 -> 450 ;
451 [label="X[2] <= 0.2625\nmse = 4631.34521385\nsamples = 12", shape="box"] ;
450 -> 451 ;
452 [label="X[2] <= 0.2475\nmse = 2167.16926092\nsamples = 4", shape="box"] ;
451 -> 452 ;
453 [label="X[0] <= 0.0250\nmse = 919.459472457\nsamples = 2", shape="box"] ;
452 -> 453 ;
454 [label="mse = 0.0000\nsamples = 1\nvalue = [[  5.15309749e-01]
 [  6.51507128e+03]]", shape="box"] ;
453 -> 454 ;
455 [label="mse = 0.0000\nsamples = 1\nvalue = [[  5.17517583e-01]
 [  6.60083651e+03]]", shape="box"] ;
453 -> 455 ;
456 [label="X[0] <= 0.0250\nmse = 726.645138765\nsamples = 2", shape="box"] ;
452 -> 456 ;
457 [label="mse = 0.0000\nsamples = 1\nvalue = [[  5.23803647e-01]
 [  6.62352821e+03]]", shape="box"] ;
456 -> 457 ;
458 [label="mse = 0.0000\nsamples = 1\nvalue = [[  5.25456279e-01]
 [  6.69977230e+03]]", shape="box"] ;
456 -> 458 ;
459 [label="X[0] <= 0.0250\nmse = 793.502576099\nsamples = 8", shape="box"] ;
451 -> 459 ;
460 [label="X[2] <= 0.2775\nmse = 506.595212357\nsamples = 4", shape="box"] ;
459 -> 460 ;
461 [label="mse = 0.0000\nsamples = 1\nvalue = [[  5.30642668e-01]
 [  6.70409001e+03]]", shape="box"] ;
460 -> 461 ;
462 [label="X[2] <= 0.2925\nmse = 70.4349888572\nsamples = 3", shape="box"] ;
460 -> 462 ;
463 [label="mse = 0.0000\nsamples = 1\nvalue = [[  5.35787057e-01]
 [  6.75688049e+03]]", shape="box"] ;
462 -> 463 ;
464 [label="X[2] <= 0.3075\nmse = 0.0507459478471\nsamples = 2", shape="box"] ;
462 -> 464 ;
465 [label="mse = 0.0000\nsamples = 1\nvalue = [[  5.39215843e-01]
 [  6.78237069e+03]]", shape="box"] ;
464 -> 465 ;
466 [label="mse = 0.0000\nsamples = 1\nvalue = [[  5.40947784e-01]
 [  6.78173354e+03]]", shape="box"] ;
464 -> 466 ;
467 [label="X[2] <= 0.2775\nmse = 299.45887249\nsamples = 4", shape="box"] ;
459 -> 467 ;
468 [label="mse = 0.0000\nsamples = 1\nvalue = [[  5.31725471e-01]
 [  6.77130602e+03]]", shape="box"] ;
467 -> 468 ;
469 [label="X[2] <= 0.2925\nmse = 28.3847317566\nsamples = 3", shape="box"] ;
467 -> 469 ;
470 [label="mse = 0.0000\nsamples = 1\nvalue = [[  5.36295736e-01]
 [  6.81585013e+03]]", shape="box"] ;
469 -> 470 ;
471 [label="X[2] <= 0.3075\nmse = 5.61932524209\nsamples = 2", shape="box"] ;
469 -> 471 ;
472 [label="mse = 0.0000\nsamples = 1\nvalue = [[  5.39162355e-01]
 [  6.83409370e+03]]", shape="box"] ;
471 -> 472 ;
473 [label="mse = 0.0000\nsamples = 1\nvalue = [[  5.40367990e-01]
 [  6.82738888e+03]]", shape="box"] ;
471 -> 473 ;
474 [label="X[0] <= 0.0250\nmse = 2212.39293487\nsamples = 36", shape="box"] ;
450 -> 474 ;
475 [label="X[2] <= 0.3075\nmse = 1619.37328472\nsamples = 18", shape="box"] ;
474 -> 475 ;
476 [label="X[2] <= 0.2475\nmse = 1110.78716517\nsamples = 15", shape="box"] ;
475 -> 476 ;
477 [label="X[3] <= 0.1650\nmse = 1500.26133393\nsamples = 3", shape="box"] ;
476 -> 477 ;
478 [label="mse = 0.0000\nsamples = 1\nvalue = [[  5.26144398e-01]
 [  6.68169355e+03]]", shape="box"] ;
477 -> 478 ;
479 [label="X[3] <= 0.1750\nmse = 109.313690072\nsamples = 2", shape="box"] ;
477 -> 479 ;
480 [label="mse = 0.0000\nsamples = 1\nvalue = [[  5.34828672e-01]
 [  6.78024977e+03]]", shape="box"] ;
479 -> 480 ;
481 [label="mse = 0.0000\nsamples = 1\nvalue = [[  5.40972183e-01]
 [  6.80982188e+03]]", shape="box"] ;
479 -> 481 ;
482 [label="X[3] <= 0.1750\nmse = 672.331603045\nsamples = 12", shape="box"] ;
476 -> 482 ;
483 [label="X[2] <= 0.2625\nmse = 372.630157352\nsamples = 8", shape="box"] ;
482 -> 483 ;
484 [label="X[3] <= 0.1650\nmse = 602.457449887\nsamples = 2", shape="box"] ;
483 -> 484 ;
485 [label="mse = 0.0000\nsamples = 1\nvalue = [[  5.33211972e-01]
 [  6.76388785e+03]]", shape="box"] ;
484 -> 485 ;
486 [label="mse = 0.0000\nsamples = 1\nvalue = [[  5.40258441e-01]
 [  6.83331162e+03]]", shape="box"] ;
484 -> 486 ;
487 [label="X[2] <= 0.2925\nmse = 112.959284811\nsamples = 6", shape="box"] ;
483 -> 487 ;
488 [label="X[3] <= 0.1650\nmse = 113.927546091\nsamples = 4", shape="box"] ;
487 -> 488 ;
489 [label="X[2] <= 0.2775\nmse = 73.6906786735\nsamples = 2", shape="box"] ;
488 -> 489 ;
490 [label="mse = 0.0000\nsamples = 1\nvalue = [[  5.38529244e-01]
 [  6.81701027e+03]]", shape="box"] ;
489 -> 490 ;
491 [label="mse = -0.0000\nsamples = 1\nvalue = [[  5.42057367e-01]
 [  6.84129041e+03]]", shape="box"] ;
489 -> 491 ;
492 [label="X[2] <= 0.2775\nmse = 4.23326061524\nsamples = 2", shape="box"] ;
488 -> 492 ;
493 [label="mse = 0.0000\nsamples = 1\nvalue = [[  5.43823697e-01]
 [  6.85654934e+03]]", shape="box"] ;
492 -> 493 ;
494 [label="mse = -0.0000\nsamples = 1\nvalue = [[  5.45502935e-01]
 [  6.85072989e+03]]", shape="box"] ;
492 -> 494 ;
495 [label="X[3] <= 0.1650\nmse = 49.5542168726\nsamples = 2", shape="box"] ;
487 -> 495 ;
496 [label="mse = 0.0000\nsamples = 1\nvalue = [[  5.43795558e-01]
 [  6.83777069e+03]]", shape="box"] ;
495 -> 496 ;
497 [label="mse = 0.0000\nsamples = 1\nvalue = [[  5.45338797e-01]
 [  6.81786005e+03]]", shape="box"] ;
495 -> 497 ;
498 [label="X[2] <= 0.2925\nmse = 865.018262692\nsamples = 4", shape="box"] ;
482 -> 498 ;
499 [label="X[2] <= 0.2775\nmse = 184.927859526\nsamples = 3", shape="box"] ;
498 -> 499 ;
500 [label="X[2] <= 0.2625\nmse = 7.95753480063\nsamples = 2", shape="box"] ;
499 -> 500 ;
501 [label="mse = 0.0000\nsamples = 1\nvalue = [[  5.44501784e-01]
 [  6.83176724e+03]]", shape="box"] ;
500 -> 501 ;
502 [label="mse = 0.0000\nsamples = 1\nvalue = [[  5.46044342e-01]
 [  6.82378850e+03]]", shape="box"] ;
500 -> 502 ;
503 [label="mse = 0.0000\nsamples = 1\nvalue = [[  5.45621619e-01]
 [  6.78757083e+03]]", shape="box"] ;
499 -> 503 ;
504 [label="mse = -0.0000\nsamples = 1\nvalue = [[  5.43351302e-01]
 [  6.72635599e+03]]", shape="box"] ;
498 -> 504 ;
505 [label="X[3] <= 0.1750\nmse = 2366.48271723\nsamples = 3", shape="box"] ;
475 -> 505 ;
506 [label="X[3] <= 0.1650\nmse = 279.184729483\nsamples = 2", shape="box"] ;
505 -> 506 ;
507 [label="mse = 0.0000\nsamples = 1\nvalue = [[  5.43806754e-01]
 [  6.80865099e+03]]", shape="box"] ;
506 -> 507 ;
508 [label="mse = -0.0000\nsamples = 1\nvalue = [[  5.43464587e-01]
 [  6.76139130e+03]]", shape="box"] ;
506 -> 508 ;
509 [label="mse = 0.0000\nsamples = 1\nvalue = [[  5.39467810e-01]
 [  6.64493818e+03]]", shape="box"] ;
505 -> 509 ;
510 [label="X[2] <= 0.3075\nmse = 1617.05349752\nsamples = 18", shape="box"] ;
474 -> 510 ;
511 [label="X[2] <= 0.2475\nmse = 990.693391923\nsamples = 15", shape="box"] ;
510 -> 511 ;
512 [label="X[3] <= 0.1650\nmse = 1520.73477299\nsamples = 3", shape="box"] ;
511 -> 512 ;
513 [label="mse = 0.0000\nsamples = 1\nvalue = [[  5.27817721e-01]
 [  6.76470694e+03]]", shape="box"] ;
512 -> 513 ;
514 [label="X[3] <= 0.1750\nmse = 121.163238367\nsamples = 2", shape="box"] ;
512 -> 514 ;
515 [label="mse = 0.0000\nsamples = 1\nvalue = [[  5.36008688e-01]
 [  6.86298048e+03]]", shape="box"] ;
514 -> 515 ;
516 [label="mse = -0.0000\nsamples = 1\nvalue = [[  5.41691451e-01]
 [  6.89411416e+03]]", shape="box"] ;
514 -> 516 ;
517 [label="X[2] <= 0.2925\nmse = 668.666064994\nsamples = 12", shape="box"] ;
511 -> 517 ;
518 [label="X[3] <= 0.1650\nmse = 368.534560594\nsamples = 9", shape="box"] ;
517 -> 518 ;
519 [label="X[2] <= 0.2625\nmse = 356.081759461\nsamples = 3", shape="box"] ;
518 -> 519 ;
520 [label="mse = 0.0000\nsamples = 1\nvalue = [[  5.34342696e-01]
 [  6.83905693e+03]]", shape="box"] ;
519 -> 520 ;
521 [label="X[2] <= 0.2775\nmse = 38.5528437459\nsamples = 2", shape="box"] ;
519 -> 521 ;
522 [label="mse = 0.0000\nsamples = 1\nvalue = [[  5.39109874e-01]
 [  6.88480501e+03]]", shape="box"] ;
521 -> 522 ;
523 [label="mse = 0.0000\nsamples = 1\nvalue = [[  5.42095075e-01]
 [  6.90236698e+03]]", shape="box"] ;
521 -> 523 ;
524 [label="X[3] <= 0.1750\nmse = 244.867649037\nsamples = 6", shape="box"] ;
518 -> 524 ;
525 [label="X[2] <= 0.2625\nmse = 25.7500814521\nsamples = 3", shape="box"] ;
524 -> 525 ;
526 [label="mse = 0.0000\nsamples = 1\nvalue = [[  5.40911391e-01]
 [  6.90981101e+03]]", shape="box"] ;
525 -> 526 ;
527 [label="X[2] <= 0.2775\nmse = 15.9579902879\nsamples = 2", shape="box"] ;
525 -> 527 ;
528 [label="mse = 0.0000\nsamples = 1\nvalue = [[  5.43953052e-01]
 [  6.92712246e+03]]", shape="box"] ;
527 -> 528 ;
529 [label="mse = 0.0000\nsamples = 1\nvalue = [[  5.45133710e-01]
 [  6.91582361e+03]]", shape="box"] ;
527 -> 529 ;
530 [label="X[2] <= 0.2775\nmse = 260.664948453\nsamples = 3", shape="box"] ;
524 -> 530 ;
531 [label="X[2] <= 0.2625\nmse = 20.4119054739\nsamples = 2", shape="box"] ;
530 -> 531 ;
532 [label="mse = 0.0000\nsamples = 1\nvalue = [[  5.44716681e-01]
 [  6.91117501e+03]]", shape="box"] ;
531 -> 532 ;
533 [label="mse = -0.0000\nsamples = 1\nvalue = [[  5.45776813e-01]
 [  6.89839631e+03]]", shape="box"] ;
531 -> 533 ;
534 [label="mse = 0.0000\nsamples = 1\nvalue = [[  5.44923816e-01]
 [  6.85763152e+03]]", shape="box"] ;
530 -> 534 ;
535 [label="X[3] <= 0.1750\nmse = 982.554782435\nsamples = 3", shape="box"] ;
517 -> 535 ;
536 [label="X[3] <= 0.1650\nmse = 27.5838356011\nsamples = 2", shape="box"] ;
535 -> 536 ;
537 [label="mse = 0.0000\nsamples = 1\nvalue = [[  5.43320049e-01]
 [  6.89295186e+03]]", shape="box"] ;
536 -> 537 ;
538 [label="mse = 0.0000\nsamples = 1\nvalue = [[  5.44526133e-01]
 [  6.87809687e+03]]", shape="box"] ;
536 -> 538 ;
539 [label="mse = -0.0000\nsamples = 1\nvalue = [[  5.42312275e-01]
 [  6.79237132e+03]]", shape="box"] ;
535 -> 539 ;
540 [label="X[3] <= 0.1750\nmse = 2036.63501877\nsamples = 3", shape="box"] ;
510 -> 540 ;
541 [label="X[3] <= 0.1650\nmse = 213.410640378\nsamples = 2", shape="box"] ;
540 -> 541 ;
542 [label="mse = 0.0000\nsamples = 1\nvalue = [[  5.42878164e-01]
 [  6.85893089e+03]]", shape="box"] ;
541 -> 542 ;
543 [label="mse = -0.0000\nsamples = 1\nvalue = [[  5.42299357e-01]
 [  6.81761158e+03]]", shape="box"] ;
541 -> 543 ;
544 [label="mse = 0.0000\nsamples = 1\nvalue = [[  5.38213057e-01]
 [  6.70769845e+03]]", shape="box"] ;
540 -> 544 ;
545 [label="X[2] <= 0.2925\nmse = 7141.34760659\nsamples = 12", shape="box"] ;
449 -> 545 ;
546 [label="X[2] <= 0.2775\nmse = 1955.48420993\nsamples = 8", shape="box"] ;
545 -> 546 ;
547 [label="X[0] <= 0.0250\nmse = 1129.37535935\nsamples = 6", shape="box"] ;
546 -> 547 ;
548 [label="X[2] <= 0.2625\nmse = 232.883924012\nsamples = 3", shape="box"] ;
547 -> 548 ;
549 [label="X[2] <= 0.2475\nmse = 13.6685634632\nsamples = 2", shape="box"] ;
548 -> 549 ;
550 [label="mse = 0.0000\nsamples = 1\nvalue = [[  5.44107526e-01]
 [  6.77226976e+03]]", shape="box"] ;
549 -> 550 ;
551 [label="mse = -0.0000\nsamples = 1\nvalue = [[  5.45423615e-01]
 [  6.76181278e+03]]", shape="box"] ;
549 -> 551 ;
552 [label="mse = -0.0000\nsamples = 1\nvalue = [[  5.44645085e-01]
 [  6.72216428e+03]]", shape="box"] ;
548 -> 552 ;
553 [label="X[2] <= 0.2625\nmse = 303.540775522\nsamples = 3", shape="box"] ;
547 -> 553 ;
554 [label="X[2] <= 0.2475\nmse = 25.6692205455\nsamples = 2", shape="box"] ;
553 -> 554 ;
555 [label="mse = 0.0000\nsamples = 1\nvalue = [[  5.44396557e-01]
 [  6.85917337e+03]]", shape="box"] ;
554 -> 555 ;
556 [label="mse = 0.0000\nsamples = 1\nvalue = [[  5.45247708e-01]
 [  6.84484320e+03]]", shape="box"] ;
554 -> 556 ;
557 [label="mse = -0.0000\nsamples = 1\nvalue = [[  5.44055624e-01]
 [  6.80123574e+03]]", shape="box"] ;
553 -> 557 ;
558 [label="X[0] <= 0.0250\nmse = 708.639847234\nsamples = 2", shape="box"] ;
546 -> 558 ;
559 [label="mse = 0.0000\nsamples = 1\nvalue = [[  5.41874921e-01]
 [  6.65626802e+03]]", shape="box"] ;
558 -> 559 ;
560 [label="mse = -0.0000\nsamples = 1\nvalue = [[  5.40961747e-01]
 [  6.73156157e+03]]", shape="box"] ;
558 -> 560 ;
561 [label="X[2] <= 0.3075\nmse = 1980.9791721\nsamples = 4", shape="box"] ;
545 -> 561 ;
562 [label="X[0] <= 0.0250\nmse = 648.726955724\nsamples = 2", shape="box"] ;
561 -> 562 ;
563 [label="mse = 0.0000\nsamples = 1\nvalue = [[  5.37345695e-01]
 [  6.56881449e+03]]", shape="box"] ;
562 -> 563 ;
564 [label="mse = -0.0000\nsamples = 1\nvalue = [[  5.36237427e-01]
 [  6.64085486e+03]]", shape="box"] ;
562 -> 564 ;
565 [label="X[0] <= 0.0250\nmse = 606.078296431\nsamples = 2", shape="box"] ;
561 -> 565 ;
566 [label="mse = 0.0000\nsamples = 1\nvalue = [[  5.31421404e-01]
 [  6.46595802e+03]]", shape="box"] ;
565 -> 566 ;
567 [label="mse = -0.0000\nsamples = 1\nvalue = [[  5.30273861e-01]
 [  6.53559009e+03]]", shape="box"] ;
565 -> 567 ;
568 [label="X[2] <= 0.2775\nmse = 13699.1937012\nsamples = 16", shape="box"] ;
408 -> 568 ;
569 [label="X[0] <= 0.0250\nmse = 2172.37424291\nsamples = 10", shape="box"] ;
568 -> 569 ;
570 [label="X[2] <= 0.2625\nmse = 1084.01810764\nsamples = 5", shape="box"] ;
569 -> 570 ;
571 [label="X[2] <= 0.2475\nmse = 227.315447483\nsamples = 4", shape="box"] ;
570 -> 571 ;
572 [label="X[2] <= 0.2175\nmse = 27.3711531849\nsamples = 3", shape="box"] ;
571 -> 572 ;
573 [label="mse = 0.0000\nsamples = 1\nvalue = [[  5.39479588e-01]
 [  6.66713408e+03]]", shape="box"] ;
572 -> 573 ;
574 [label="X[2] <= 0.2325\nmse = 23.2274020346\nsamples = 2", shape="box"] ;
572 -> 574 ;
575 [label="mse = 0.0000\nsamples = 1\nvalue = [[  5.42681280e-01]
 [  6.68429278e+03]]", shape="box"] ;
574 -> 575 ;
576 [label="mse = -0.0000\nsamples = 1\nvalue = [[  5.43670809e-01]
 [  6.67066122e+03]]", shape="box"] ;
574 -> 576 ;
577 [label="mse = 0.0000\nsamples = 1\nvalue = [[  5.42427135e-01]
 [  6.62706417e+03]]", shape="box"] ;
571 -> 577 ;
578 [label="mse = 0.0000\nsamples = 1\nvalue = [[  5.39040054e-01]
 [  6.55609450e+03]]", shape="box"] ;
570 -> 578 ;
579 [label="X[2] <= 0.2625\nmse = 1258.36810254\nsamples = 5", shape="box"] ;
569 -> 579 ;
580 [label="X[2] <= 0.2475\nmse = 280.571337604\nsamples = 4", shape="box"] ;
579 -> 580 ;
581 [label="X[2] <= 0.2325\nmse = 27.3380555697\nsamples = 3", shape="box"] ;
580 -> 581 ;
582 [label="X[2] <= 0.2175\nmse = 27.6965825923\nsamples = 2", shape="box"] ;
581 -> 582 ;
583 [label="mse = 0.0000\nsamples = 1\nvalue = [[  5.40295193e-01]
 [  6.76198507e+03]]", shape="box"] ;
582 -> 583 ;
584 [label="mse = 0.0000\nsamples = 1\nvalue = [[  5.43029167e-01]
 [  6.77687039e+03]]", shape="box"] ;
582 -> 584 ;
585 [label="mse = -0.0000\nsamples = 1\nvalue = [[  5.43572229e-01]
 [  6.76049112e+03]]", shape="box"] ;
581 -> 585 ;
586 [label="mse = -0.0000\nsamples = 1\nvalue = [[  5.41935151e-01]
 [  6.71377955e+03]]", shape="box"] ;
580 -> 586 ;
587 [label="mse = -0.0000\nsamples = 1\nvalue = [[  5.38248262e-01]
 [  6.63959825e+03]]", shape="box"] ;
579 -> 587 ;
588 [label="X[2] <= 0.3075\nmse = 5244.16345578\nsamples = 6", shape="box"] ;
568 -> 588 ;
589 [label="X[2] <= 0.2925\nmse = 2341.54522434\nsamples = 4", shape="box"] ;
588 -> 589 ;
590 [label="X[0] <= 0.0250\nmse = 811.615469004\nsamples = 2", shape="box"] ;
589 -> 590 ;
591 [label="mse = 0.0000\nsamples = 1\nvalue = [[  5.33744442e-01]
 [  6.46230582e+03]]", shape="box"] ;
590 -> 591 ;
592 [label="mse = 0.0000\nsamples = 1\nvalue = [[  5.32787766e-01]
 [  6.54288450e+03]]", shape="box"] ;
590 -> 592 ;
593 [label="X[0] <= 0.0250\nmse = 766.676138501\nsamples = 2", shape="box"] ;
589 -> 593 ;
594 [label="mse = 0.0000\nsamples = 1\nvalue = [[  5.26926968e-01]
 [  6.35199567e+03]]", shape="box"] ;
593 -> 594 ;
595 [label="mse = -0.0000\nsamples = 1\nvalue = [[  5.25969178e-01]
 [  6.43031175e+03]]", shape="box"] ;
593 -> 595 ;
596 [label="X[0] <= 0.0250\nmse = 740.001840014\nsamples = 2", shape="box"] ;
588 -> 596 ;
597 [label="mse = 0.0000\nsamples = 1\nvalue = [[  5.19088531e-01]
 [  6.23253948e+03]]", shape="box"] ;
596 -> 597 ;
598 [label="mse = 0.0000\nsamples = 1\nvalue = [[  5.18297020e-01]
 [  6.30948111e+03]]", shape="box"] ;
596 -> 598 ;
599 [label="X[2] <= 0.2775\nmse = 24428.6314657\nsamples = 16", shape="box"] ;
375 -> 599 ;
600 [label="X[2] <= 0.2475\nmse = 5221.09717556\nsamples = 10", shape="box"] ;
599 -> 600 ;
601 [label="X[0] <= 0.0250\nmse = 1526.6904809\nsamples = 6", shape="box"] ;
600 -> 601 ;
602 [label="X[2] <= 0.2325\nmse = 390.415836422\nsamples = 3", shape="box"] ;
601 -> 602 ;
603 [label="X[2] <= 0.2175\nmse = 39.3505230298\nsamples = 2", shape="box"] ;
602 -> 603 ;
604 [label="mse = 0.0000\nsamples = 1\nvalue = [[  5.40284279e-01]
 [  6.57429231e+03]]", shape="box"] ;
603 -> 604 ;
605 [label="mse = -0.0000\nsamples = 1\nvalue = [[  5.40839541e-01]
 [  6.55654959e+03]]", shape="box"] ;
603 -> 605 ;
606 [label="mse = -0.0000\nsamples = 1\nvalue = [[  5.39012375e-01]
 [  6.50817028e+03]]", shape="box"] ;
602 -> 606 ;
607 [label="X[2] <= 0.2325\nmse = 431.684809387\nsamples = 3", shape="box"] ;
601 -> 607 ;
608 [label="X[2] <= 0.2175\nmse = 46.2651473639\nsamples = 2", shape="box"] ;
607 -> 608 ;
609 [label="mse = 0.0000\nsamples = 1\nvalue = [[  5.40673188e-01]
 [  6.67045054e+03]]", shape="box"] ;
608 -> 609 ;
610 [label="mse = -0.0000\nsamples = 1\nvalue = [[  5.40800899e-01]
 [  6.65121201e+03]]", shape="box"] ;
608 -> 610 ;
611 [label="mse = -0.0000\nsamples = 1\nvalue = [[  5.38603621e-01]
 [  6.60076821e+03]]", shape="box"] ;
607 -> 611 ;
612 [label="X[2] <= 0.2625\nmse = 2290.77235062\nsamples = 4", shape="box"] ;
600 -> 612 ;
613 [label="X[0] <= 0.0250\nmse = 1017.54299016\nsamples = 2", shape="box"] ;
612 -> 613 ;
614 [label="mse = 0.0000\nsamples = 1\nvalue = [[  5.34881748e-01]
 [  6.43137700e+03]]", shape="box"] ;
613 -> 614 ;
615 [label="mse = -0.0000\nsamples = 1\nvalue = [[  5.34203598e-01]
 [  6.52160086e+03]]", shape="box"] ;
613 -> 615 ;
616 [label="X[0] <= 0.0250\nmse = 966.868872906\nsamples = 2", shape="box"] ;
612 -> 616 ;
617 [label="mse = 0.0000\nsamples = 1\nvalue = [[  5.28690727e-01]
 [  6.33059050e+03]]", shape="box"] ;
616 -> 617 ;
618 [label="mse = -0.0000\nsamples = 1\nvalue = [[  5.27888085e-01]
 [  6.41853907e+03]]", shape="box"] ;
616 -> 618 ;
619 [label="X[2] <= 0.3075\nmse = 6470.30061999\nsamples = 6", shape="box"] ;
599 -> 619 ;
620 [label="X[2] <= 0.2925\nmse = 2980.90371935\nsamples = 4", shape="box"] ;
619 -> 620 ;
621 [label="X[0] <= 0.0250\nmse = 928.43800104\nsamples = 2", shape="box"] ;
620 -> 621 ;
622 [label="mse = 0.0000\nsamples = 1\nvalue = [[  5.20858212e-01]
 [  6.21229442e+03]]", shape="box"] ;
621 -> 622 ;
623 [label="mse = -0.0000\nsamples = 1\nvalue = [[  5.20105907e-01]
 [  6.29847739e+03]]", shape="box"] ;
621 -> 623 ;
624 [label="X[0] <= 0.0250\nmse = 906.703672194\nsamples = 2", shape="box"] ;
620 -> 624 ;
625 [label="mse = 0.0000\nsamples = 1\nvalue = [[  5.11938098e-01]
 [  6.08432352e+03]]", shape="box"] ;
624 -> 625 ;
626 [label="mse = -0.0000\nsamples = 1\nvalue = [[  5.11412025e-01]
 [  6.16949176e+03]]", shape="box"] ;
624 -> 626 ;
627 [label="X[0] <= 0.0250\nmse = 900.421940974\nsamples = 2", shape="box"] ;
619 -> 627 ;
628 [label="mse = 0.0000\nsamples = 1\nvalue = [[  5.02529188e-01]
 [  5.95468461e+03]]", shape="box"] ;
627 -> 628 ;
629 [label="mse = -0.0000\nsamples = 1\nvalue = [[  5.02373448e-01]
 [  6.03955731e+03]]", shape="box"] ;
627 -> 629 ;
630 [label="X[3] <= 0.2050\nmse = 22263.5925262\nsamples = 128", shape="box"] ;
374 -> 630 ;
631 [label="X[3] <= 0.1450\nmse = 17171.0958006\nsamples = 112", shape="box"] ;
630 -> 631 ;
632 [label="X[2] <= 0.2475\nmse = 18420.7290355\nsamples = 16", shape="box"] ;
631 -> 632 ;
633 [label="X[2] <= 0.2175\nmse = 9466.95127377\nsamples = 6", shape="box"] ;
632 -> 633 ;
634 [label="X[0] <= 0.1250\nmse = 3233.41073216\nsamples = 2", shape="box"] ;
633 -> 634 ;
635 [label="mse = 0.0000\nsamples = 1\nvalue = [[  4.86810232e-01]
 [  6.18836944e+03]]", shape="box"] ;
634 -> 635 ;
636 [label="mse = 0.0000\nsamples = 1\nvalue = [[  4.91991261e-01]
 [  6.34920254e+03]]", shape="box"] ;
634 -> 636 ;
637 [label="X[0] <= 0.1250\nmse = 4478.76946237\nsamples = 4", shape="box"] ;
633 -> 637 ;
638 [label="X[2] <= 0.2325\nmse = 2260.51770697\nsamples = 2", shape="box"] ;
637 -> 638 ;
639 [label="mse = 0.0000\nsamples = 1\nvalue = [[  4.98580479e-01]
 [  6.35198328e+03]]", shape="box"] ;
638 -> 639 ;
640 [label="mse = 0.0000\nsamples = 1\nvalue = [[  5.08736062e-01]
 [  6.48646057e+03]]", shape="box"] ;
638 -> 640 ;
641 [label="X[2] <= 0.2325\nmse = 1785.04190566\nsamples = 2", shape="box"] ;
637 -> 641 ;
642 [label="mse = 0.0000\nsamples = 1\nvalue = [[  5.03135580e-01]
 [  6.49964278e+03]]", shape="box"] ;
641 -> 642 ;
643 [label="mse = 0.0000\nsamples = 1\nvalue = [[  5.12591422e-01]
 [  6.61914313e+03]]", shape="box"] ;
641 -> 643 ;
644 [label="X[2] <= 0.2775\nmse = 2671.33022198\nsamples = 10", shape="box"] ;
632 -> 644 ;
645 [label="X[0] <= 0.1250\nmse = 2167.06291333\nsamples = 4", shape="box"] ;
644 -> 645 ;
646 [label="X[2] <= 0.2625\nmse = 818.852926829\nsamples = 2", shape="box"] ;
645 -> 646 ;
647 [label="mse = 0.0000\nsamples = 1\nvalue = [[  5.17269676e-01]
 [  6.59336713e+03]]", shape="box"] ;
646 -> 647 ;
648 [label="mse = -0.0000\nsamples = 1\nvalue = [[  5.24169250e-01]
 [  6.67430428e+03]]", shape="box"] ;
646 -> 648 ;
649 [label="X[2] <= 0.2625\nmse = 534.583255747\nsamples = 2", shape="box"] ;
645 -> 649 ;
650 [label="mse = 0.0000\nsamples = 1\nvalue = [[  5.20364751e-01]
 [  6.71032898e+03]]", shape="box"] ;
649 -> 650 ;
651 [label="mse = -0.0000\nsamples = 1\nvalue = [[  5.26457111e-01]
 [  6.77572520e+03]]", shape="box"] ;
649 -> 651 ;
652 [label="X[0] <= 0.1250\nmse = 802.441611874\nsamples = 6", shape="box"] ;
644 -> 652 ;
653 [label="X[2] <= 0.2925\nmse = 172.141526746\nsamples = 3", shape="box"] ;
652 -> 653 ;
654 [label="mse = 0.0000\nsamples = 1\nvalue = [[  5.29424094e-01]
 [  6.73065520e+03]]", shape="box"] ;
653 -> 654 ;
655 [label="X[2] <= 0.3075\nmse = 14.2323475517\nsamples = 2", shape="box"] ;
653 -> 655 ;
656 [label="mse = 0.0000\nsamples = 1\nvalue = [[  5.33038563e-01]
 [  6.76358065e+03]]", shape="box"] ;
655 -> 656 ;
657 [label="mse = -0.0000\nsamples = 1\nvalue = [[  5.35051717e-01]
 [  6.77425111e+03]]", shape="box"] ;
655 -> 657 ;
658 [label="X[2] <= 0.2925\nmse = 43.6389689604\nsamples = 3", shape="box"] ;
652 -> 658 ;
659 [label="mse = 0.0000\nsamples = 1\nvalue = [[  5.30875453e-01]
 [  6.81749238e+03]]", shape="box"] ;
658 -> 659 ;
660 [label="X[2] <= 0.3075\nmse = 0.00673348304962\nsamples = 2", shape="box"] ;
658 -> 660 ;
661 [label="mse = 0.0000\nsamples = 1\nvalue = [[  5.33649294e-01]
 [  6.83742534e+03]]", shape="box"] ;
660 -> 661 ;
662 [label="mse = -0.0000\nsamples = 1\nvalue = [[  5.34852697e-01]
 [  6.83719325e+03]]", shape="box"] ;
660 -> 662 ;
663 [label="X[0] <= 0.1250\nmse = 11594.6900408\nsamples = 96", shape="box"] ;
631 -> 663 ;
664 [label="X[3] <= 0.1950\nmse = 10554.9940186\nsamples = 48", shape="box"] ;
663 -> 664 ;
665 [label="X[3] <= 0.1550\nmse = 7942.60444846\nsamples = 40", shape="box"] ;
664 -> 665 ;
666 [label="X[2] <= 0.2325\nmse = 11939.6321771\nsamples = 8", shape="box"] ;
665 -> 666 ;
667 [label="X[2] <= 0.2175\nmse = 2591.42573064\nsamples = 2", shape="box"] ;
666 -> 667 ;
668 [label="mse = 0.0000\nsamples = 1\nvalue = [[  5.00550155e-01]
 [  6.44402924e+03]]", shape="box"] ;
667 -> 668 ;
669 [label="mse = -0.0000\nsamples = 1\nvalue = [[  5.11143901e-01]
 [  6.58801329e+03]]", shape="box"] ;
667 -> 669 ;
670 [label="X[2] <= 0.2625\nmse = 2344.46473681\nsamples = 6", shape="box"] ;
666 -> 670 ;
671 [label="X[2] <= 0.2475\nmse = 956.924118081\nsamples = 2", shape="box"] ;
670 -> 671 ;
672 [label="mse = 0.0000\nsamples = 1\nvalue = [[  5.20098182e-01]
 [  6.70322170e+03]]", shape="box"] ;
671 -> 672 ;
673 [label="mse = 0.0000\nsamples = 1\nvalue = [[  5.27388744e-01]
 [  6.79071680e+03]]", shape="box"] ;
671 -> 673 ;
674 [label="X[2] <= 0.2775\nmse = 138.158285591\nsamples = 4", shape="box"] ;
670 -> 674 ;
675 [label="mse = 0.0000\nsamples = 1\nvalue = [[  5.32989273e-01]
 [  6.85141023e+03]]", shape="box"] ;
674 -> 675 ;
676 [label="X[2] <= 0.3075\nmse = 16.5240997875\nsamples = 3", shape="box"] ;
674 -> 676 ;
677 [label="X[2] <= 0.2925\nmse = 11.8071637219\nsamples = 2", shape="box"] ;
676 -> 677 ;
678 [label="mse = 0.0000\nsamples = 1\nvalue = [[  5.36885310e-01]
 [  6.88611874e+03]]", shape="box"] ;
677 -> 678 ;
679 [label="mse = 0.0000\nsamples = 1\nvalue = [[  5.39094499e-01]
 [  6.89583766e+03]]", shape="box"] ;
677 -> 679 ;
680 [label="mse = 0.0000\nsamples = 1\nvalue = [[  5.39690666e-01]
 [  6.88215358e+03]]", shape="box"] ;
676 -> 680 ;
681 [label="X[2] <= 0.3075\nmse = 4887.6799017\nsamples = 32", shape="box"] ;
665 -> 681 ;
682 [label="X[2] <= 0.2175\nmse = 3867.14586812\nsamples = 28", shape="box"] ;
681 -> 682 ;
683 [label="X[3] <= 0.1650\nmse = 5090.42821297\nsamples = 4", shape="box"] ;
682 -> 683 ;
684 [label="mse = 0.0000\nsamples = 1\nvalue = [[  5.12826686e-01]
 [  6.64796898e+03]]", shape="box"] ;
683 -> 684 ;
685 [label="X[3] <= 0.1750\nmse = 1150.80912728\nsamples = 3", shape="box"] ;
683 -> 685 ;
686 [label="mse = 0.0000\nsamples = 1\nvalue = [[  5.23363385e-01]
 [  6.79417496e+03]]", shape="box"] ;
685 -> 686 ;
687 [label="X[3] <= 0.1850\nmse = 85.7047528096\nsamples = 2", shape="box"] ;
685 -> 687 ;
688 [label="mse = 0.0000\nsamples = 1\nvalue = [[  5.31860400e-01]
 [  6.88029478e+03]]", shape="box"] ;
687 -> 688 ;
689 [label="mse = 0.0000\nsamples = 1\nvalue = [[  5.37961003e-01]
 [  6.90647947e+03]]", shape="box"] ;
687 -> 689 ;
690 [label="X[3] <= 0.1850\nmse = 2589.73415811\nsamples = 24", shape="box"] ;
682 -> 690 ;
691 [label="X[2] <= 0.2325\nmse = 1804.25959456\nsamples = 18", shape="box"] ;
690 -> 691 ;
692 [label="X[3] <= 0.1650\nmse = 2864.56447052\nsamples = 3", shape="box"] ;
691 -> 692 ;
693 [label="mse = 0.0000\nsamples = 1\nvalue = [[  5.22139346e-01]
 [  6.76986383e+03]]", shape="box"] ;
692 -> 693 ;
694 [label="X[3] <= 0.1750\nmse = 448.390540584\nsamples = 2", shape="box"] ;
692 -> 694 ;
695 [label="mse = 0.0000\nsamples = 1\nvalue = [[  5.31251890e-01]
 [  6.89187389e+03]]", shape="box"] ;
694 -> 695 ;
696 [label="mse = -0.0000\nsamples = 1\nvalue = [[  5.38128471e-01]
 [  6.95176649e+03]]", shape="box"] ;
694 -> 696 ;
697 [label="X[2] <= 0.2925\nmse = 932.829338944\nsamples = 15", shape="box"] ;
691 -> 697 ;
698 [label="X[3] <= 0.1650\nmse = 802.031674128\nsamples = 12", shape="box"] ;
697 -> 698 ;
699 [label="X[2] <= 0.2475\nmse = 960.241093913\nsamples = 4", shape="box"] ;
698 -> 699 ;
700 [label="mse = 0.0000\nsamples = 1\nvalue = [[  5.29761579e-01]
 [  6.86308593e+03]]", shape="box"] ;
699 -> 700 ;
701 [label="X[2] <= 0.2625\nmse = 202.752616661\nsamples = 3", shape="box"] ;
699 -> 701 ;
702 [label="mse = 0.0000\nsamples = 1\nvalue = [[  5.35651060e-01]
 [  6.92801602e+03]]", shape="box"] ;
701 -> 702 ;
703 [label="X[2] <= 0.2775\nmse = 11.8728398187\nsamples = 2", shape="box"] ;
701 -> 703 ;
704 [label="mse = 0.0000\nsamples = 1\nvalue = [[  5.39774198e-01]
 [  6.96501831e+03]]", shape="box"] ;
703 -> 704 ;
705 [label="mse = 0.0000\nsamples = 1\nvalue = [[  5.42126937e-01]
 [  6.97476422e+03]]", shape="box"] ;
703 -> 705 ;
706 [label="X[2] <= 0.2775\nmse = 244.522775702\nsamples = 8", shape="box"] ;
698 -> 706 ;
707 [label="X[2] <= 0.2475\nmse = 132.305786509\nsamples = 6", shape="box"] ;
706 -> 707 ;
708 [label="X[3] <= 0.1750\nmse = 135.046142049\nsamples = 2", shape="box"] ;
707 -> 708 ;
709 [label="mse = 0.0000\nsamples = 1\nvalue = [[  5.37366407e-01]
 [  6.96053813e+03]]", shape="box"] ;
708 -> 709 ;
710 [label="mse = -0.0000\nsamples = 1\nvalue = [[  5.42507800e-01]
 [  6.99340710e+03]]", shape="box"] ;
708 -> 710 ;
711 [label="X[3] <= 0.1750\nmse = 38.3194886723\nsamples = 4", shape="box"] ;
707 -> 711 ;
712 [label="X[2] <= 0.2625\nmse = 13.7299024753\nsamples = 2", shape="box"] ;
711 -> 712 ;
713 [label="mse = 0.0000\nsamples = 1\nvalue = [[  5.41653722e-01]
 [  7.00000223e+03]]", shape="box"] ;
712 -> 713 ;
714 [label="mse = 0.0000\nsamples = 1\nvalue = [[  5.44087671e-01]
 [  7.01048265e+03]]", shape="box"] ;
712 -> 714 ;
715 [label="X[2] <= 0.2625\nmse = 40.850963759\nsamples = 2", shape="box"] ;
711 -> 715 ;
716 [label="mse = 0.0000\nsamples = 1\nvalue = [[  5.44949657e-01]
 [  7.00488814e+03]]", shape="box"] ;
715 -> 716 ;
717 [label="mse = -0.0000\nsamples = 1\nvalue = [[  5.45458511e-01]
 [  6.98681031e+03]]", shape="box"] ;
715 -> 717 ;
718 [label="X[3] <= 0.1750\nmse = 336.133267824\nsamples = 2", shape="box"] ;
706 -> 718 ;
719 [label="mse = 0.0000\nsamples = 1\nvalue = [[  5.44696069e-01]
 [  6.99305370e+03]]", shape="box"] ;
718 -> 719 ;
720 [label="mse = 0.0000\nsamples = 1\nvalue = [[  5.44123116e-01]
 [  6.94119749e+03]]", shape="box"] ;
718 -> 720 ;
721 [label="X[3] <= 0.1750\nmse = 764.000839061\nsamples = 3", shape="box"] ;
697 -> 721 ;
722 [label="X[3] <= 0.1650\nmse = 9.21814140312\nsamples = 2", shape="box"] ;
721 -> 722 ;
723 [label="mse = 0.0000\nsamples = 1\nvalue = [[  5.42760245e-01]
 [  6.95866776e+03]]", shape="box"] ;
722 -> 723 ;
724 [label="mse = 0.0000\nsamples = 1\nvalue = [[  5.43588522e-01]
 [  6.95008027e+03]]", shape="box"] ;
722 -> 724 ;
725 [label="mse = -0.0000\nsamples = 1\nvalue = [[  5.41140524e-01]
 [  6.87178649e+03]]", shape="box"] ;
721 -> 725 ;
726 [label="X[2] <= 0.2775\nmse = 3510.1490656\nsamples = 6", shape="box"] ;
690 -> 726 ;
727 [label="X[2] <= 0.2625\nmse = 316.386957452\nsamples = 4", shape="box"] ;
726 -> 727 ;
728 [label="X[2] <= 0.2475\nmse = 29.607264611\nsamples = 3", shape="box"] ;
727 -> 728 ;
729 [label="X[2] <= 0.2325\nmse = 18.7907807857\nsamples = 2", shape="box"] ;
728 -> 729 ;
730 [label="mse = 0.0000\nsamples = 1\nvalue = [[  5.42351396e-01]
 [  6.94956798e+03]]", shape="box"] ;
729 -> 730 ;
731 [label="mse = -0.0000\nsamples = 1\nvalue = [[  5.44717224e-01]
 [  6.96182874e+03]]", shape="box"] ;
729 -> 731 ;
732 [label="mse = 0.0000\nsamples = 1\nvalue = [[  5.45039494e-01]
 [  6.94329995e+03]]", shape="box"] ;
728 -> 732 ;
733 [label="mse = -0.0000\nsamples = 1\nvalue = [[  5.43386700e-01]
 [  6.89554827e+03]]", shape="box"] ;
727 -> 733 ;
734 [label="X[2] <= 0.2925\nmse = 1101.51789229\nsamples = 2", shape="box"] ;
726 -> 734 ;
735 [label="mse = 0.0000\nsamples = 1\nvalue = [[  5.39944409e-01]
 [  6.82205247e+03]]", shape="box"] ;
734 -> 735 ;
736 [label="mse = 0.0000\nsamples = 1\nvalue = [[  5.35025081e-01]
 [  6.72817946e+03]]", shape="box"] ;
734 -> 736 ;
737 [label="X[3] <= 0.1850\nmse = 6739.98107191\nsamples = 4", shape="box"] ;
681 -> 737 ;
738 [label="X[3] <= 0.1750\nmse = 1653.98738287\nsamples = 3", shape="box"] ;
737 -> 738 ;
739 [label="X[3] <= 0.1650\nmse = 143.1668383\nsamples = 2", shape="box"] ;
738 -> 739 ;
740 [label="mse = 0.0000\nsamples = 1\nvalue = [[  5.41804848e-01]
 [  6.91928466e+03]]", shape="box"] ;
739 -> 740 ;
741 [label="mse = -0.0000\nsamples = 1\nvalue = [[  5.40975266e-01]
 [  6.88544187e+03]]", shape="box"] ;
739 -> 741 ;
742 [label="mse = 0.0000\nsamples = 1\nvalue = [[  5.36820288e-01]
 [  6.78392811e+03]]", shape="box"] ;
738 -> 742 ;
743 [label="mse = -0.0000\nsamples = 1\nvalue = [[  5.29044335e-01]
 [  6.62068407e+03]]", shape="box"] ;
737 -> 743 ;
744 [label="X[2] <= 0.2775\nmse = 14183.1383584\nsamples = 8", shape="box"] ;
664 -> 744 ;
745 [label="X[2] <= 0.2625\nmse = 1452.70223365\nsamples = 5", shape="box"] ;
744 -> 745 ;
746 [label="X[2] <= 0.2475\nmse = 345.409427316\nsamples = 4", shape="box"] ;
745 -> 746 ;
747 [label="X[2] <= 0.2325\nmse = 31.7395011463\nsamples = 3", shape="box"] ;
746 -> 747 ;
748 [label="X[2] <= 0.2175\nmse = 19.1771985847\nsamples = 2", shape="box"] ;
747 -> 748 ;
749 [label="mse = 0.0000\nsamples = 1\nvalue = [[  5.41225483e-01]
 [  6.87407307e+03]]", shape="box"] ;
748 -> 749 ;
750 [label="mse = 0.0000\nsamples = 1\nvalue = [[  5.43422045e-01]
 [  6.88645926e+03]]", shape="box"] ;
748 -> 750 ;
751 [label="mse = 0.0000\nsamples = 1\nvalue = [[  5.43459705e-01]
 [  6.86720506e+03]]", shape="box"] ;
747 -> 751 ;
752 [label="mse = -0.0000\nsamples = 1\nvalue = [[  5.41387650e-01]
 [  6.81734241e+03]]", shape="box"] ;
746 -> 752 ;
753 [label="mse = 0.0000\nsamples = 1\nvalue = [[  5.37382524e-01]
 [  6.74000708e+03]]", shape="box"] ;
745 -> 753 ;
754 [label="X[2] <= 0.3075\nmse = 4668.45285234\nsamples = 3", shape="box"] ;
744 -> 754 ;
755 [label="X[2] <= 0.2925\nmse = 1642.59232858\nsamples = 2", shape="box"] ;
754 -> 755 ;
756 [label="mse = 0.0000\nsamples = 1\nvalue = [[  5.31764141e-01]
 [  6.64051544e+03]]", shape="box"] ;
755 -> 756 ;
757 [label="mse = 0.0000\nsamples = 1\nvalue = [[  5.24973670e-01]
 [  6.52588238e+03]]", shape="box"] ;
755 -> 757 ;
758 [label="mse = -0.0000\nsamples = 1\nvalue = [[  5.17511408e-01]
 [  6.40386536e+03]]", shape="box"] ;
754 -> 758 ;
759 [label="X[3] <= 0.1950\nmse = 9620.13203575\nsamples = 48", shape="box"] ;
663 -> 759 ;
760 [label="X[3] <= 0.1550\nmse = 7000.84420346\nsamples = 40", shape="box"] ;
759 -> 760 ;
761 [label="X[2] <= 0.2325\nmse = 8187.37599054\nsamples = 8", shape="box"] ;
760 -> 761 ;
762 [label="X[2] <= 0.2175\nmse = 2140.3698582\nsamples = 2", shape="box"] ;
761 -> 762 ;
763 [label="mse = 0.0000\nsamples = 1\nvalue = [[  5.04965204e-01]
 [  6.59399245e+03]]", shape="box"] ;
762 -> 763 ;
764 [label="mse = 0.0000\nsamples = 1\nvalue = [[  5.14894603e-01]
 [  6.72484718e+03]]", shape="box"] ;
762 -> 764 ;
765 [label="X[2] <= 0.2625\nmse = 1281.78587972\nsamples = 6", shape="box"] ;
761 -> 765 ;
766 [label="X[2] <= 0.2475\nmse = 675.95013306\nsamples = 2", shape="box"] ;
765 -> 766 ;
767 [label="mse = 0.0000\nsamples = 1\nvalue = [[  5.23128710e-01]
 [  6.82608632e+03]]", shape="box"] ;
766 -> 767 ;
768 [label="mse = -0.0000\nsamples = 1\nvalue = [[  5.29654987e-01]
 [  6.89962272e+03]]", shape="box"] ;
766 -> 768 ;
769 [label="X[2] <= 0.2775\nmse = 62.2544568416\nsamples = 4", shape="box"] ;
765 -> 769 ;
770 [label="mse = 0.0000\nsamples = 1\nvalue = [[  5.34462046e-01]
 [  6.94707838e+03]]", shape="box"] ;
769 -> 770 ;
771 [label="X[2] <= 0.3075\nmse = 54.3699486576\nsamples = 3", shape="box"] ;
769 -> 771 ;
772 [label="X[2] <= 0.2925\nmse = 0.0318348661069\nsamples = 2", shape="box"] ;
771 -> 772 ;
773 [label="mse = 0.0000\nsamples = 1\nvalue = [[  5.37557118e-01]
 [  6.96983852e+03]]", shape="box"] ;
772 -> 773 ;
774 [label="mse = 0.0000\nsamples = 1\nvalue = [[  5.38989041e-01]
 [  6.96933387e+03]]", shape="box"] ;
772 -> 774 ;
775 [label="mse = 0.0000\nsamples = 1\nvalue = [[  5.38872910e-01]
 [  6.94746972e+03]]", shape="box"] ;
771 -> 775 ;
776 [label="X[2] <= 0.2925\nmse = 4551.90074112\nsamples = 32", shape="box"] ;
760 -> 776 ;
777 [label="X[2] <= 0.2175\nmse = 2984.62622617\nsamples = 24", shape="box"] ;
776 -> 777 ;
778 [label="X[3] <= 0.1650\nmse = 4689.41868538\nsamples = 4", shape="box"] ;
777 -> 778 ;
779 [label="mse = 0.0000\nsamples = 1\nvalue = [[  5.16498109e-01]
 [  6.78878782e+03]]", shape="box"] ;
778 -> 779 ;
780 [label="X[3] <= 0.1750\nmse = 1072.10248031\nsamples = 3", shape="box"] ;
778 -> 780 ;
781 [label="mse = 0.0000\nsamples = 1\nvalue = [[  5.26326131e-01]
 [  6.92858452e+03]]", shape="box"] ;
780 -> 781 ;
782 [label="X[3] <= 0.1850\nmse = 82.6753240085\nsamples = 2", shape="box"] ;
780 -> 782 ;
783 [label="mse = 0.0000\nsamples = 1\nvalue = [[  5.34151135e-01]
 [  7.01139628e+03]]", shape="box"] ;
782 -> 783 ;
784 [label="mse = -0.0000\nsamples = 1\nvalue = [[  5.39613485e-01]
 [  7.03711403e+03]]", shape="box"] ;
782 -> 784 ;
785 [label="X[3] <= 0.1650\nmse = 1651.40620928\nsamples = 20", shape="box"] ;
777 -> 785 ;
786 [label="X[2] <= 0.2475\nmse = 1876.56270114\nsamples = 5", shape="box"] ;
785 -> 786 ;
787 [label="X[2] <= 0.2325\nmse = 824.709399226\nsamples = 2", shape="box"] ;
786 -> 787 ;
788 [label="mse = 0.0000\nsamples = 1\nvalue = [[  5.25128120e-01]
 [  6.89883410e+03]]", shape="box"] ;
787 -> 788 ;
789 [label="mse = 0.0000\nsamples = 1\nvalue = [[  5.32026109e-01]
 [  6.98006017e+03]]", shape="box"] ;
787 -> 789 ;
790 [label="X[2] <= 0.2625\nmse = 78.9230920445\nsamples = 3", shape="box"] ;
786 -> 790 ;
791 [label="mse = 0.0000\nsamples = 1\nvalue = [[  5.37162464e-01]
 [  7.03345966e+03]]", shape="box"] ;
790 -> 791 ;
792 [label="X[2] <= 0.2775\nmse = 0.0268889170758\nsamples = 2", shape="box"] ;
790 -> 792 ;
793 [label="mse = 0.0000\nsamples = 1\nvalue = [[  5.40522444e-01]
 [  7.05987634e+03]]", shape="box"] ;
792 -> 793 ;
794 [label="mse = 0.0000\nsamples = 1\nvalue = [[  5.42130037e-01]
 [  7.06034013e+03]]", shape="box"] ;
792 -> 794 ;
795 [label="X[3] <= 0.1850\nmse = 1144.63607618\nsamples = 15", shape="box"] ;
785 -> 795 ;
796 [label="X[2] <= 0.2325\nmse = 469.350560279\nsamples = 10", shape="box"] ;
795 -> 796 ;
797 [label="X[3] <= 0.1750\nmse = 435.818399571\nsamples = 2", shape="box"] ;
796 -> 797 ;
798 [label="mse = 0.0000\nsamples = 1\nvalue = [[  5.33527000e-01]
 [  7.01654217e+03]]", shape="box"] ;
797 -> 798 ;
799 [label="mse = 0.0000\nsamples = 1\nvalue = [[  5.39736887e-01]
 [  7.07558916e+03]]", shape="box"] ;
797 -> 799 ;
800 [label="X[2] <= 0.2775\nmse = 271.586898198\nsamples = 8", shape="box"] ;
796 -> 800 ;
801 [label="X[2] <= 0.2475\nmse = 92.512176925\nsamples = 6", shape="box"] ;
800 -> 801 ;
802 [label="X[3] <= 0.1750\nmse = 149.178596941\nsamples = 2", shape="box"] ;
801 -> 802 ;
803 [label="mse = 0.0000\nsamples = 1\nvalue = [[  5.38925618e-01]
 [  7.07569474e+03]]", shape="box"] ;
802 -> 803 ;
804 [label="mse = -0.0000\nsamples = 1\nvalue = [[  5.43421704e-01]
 [  7.11024077e+03]]", shape="box"] ;
802 -> 804 ;
805 [label="X[2] <= 0.2625\nmse = 38.796908562\nsamples = 4", shape="box"] ;
801 -> 805 ;
806 [label="X[3] <= 0.1750\nmse = 9.98032825349\nsamples = 2", shape="box"] ;
805 -> 806 ;
807 [label="mse = 0.0000\nsamples = 1\nvalue = [[  5.42485385e-01]
 [  7.10624372e+03]]", shape="box"] ;
806 -> 807 ;
808 [label="mse = 0.0000\nsamples = 1\nvalue = [[  5.45180656e-01]
 [  7.11517919e+03]]", shape="box"] ;
806 -> 808 ;
809 [label="X[3] <= 0.1750\nmse = 38.4208122533\nsamples = 2", shape="box"] ;
805 -> 809 ;
810 [label="mse = 0.0000\nsamples = 1\nvalue = [[  5.44205719e-01]
 [  7.10867134e+03]]", shape="box"] ;
809 -> 810 ;
811 [label="mse = 0.0000\nsamples = 1\nvalue = [[  5.45053315e-01]
 [  7.09113947e+03]]", shape="box"] ;
809 -> 811 ;
812 [label="X[3] <= 0.1750\nmse = 241.260513418\nsamples = 2", shape="box"] ;
800 -> 812 ;
813 [label="mse = 0.0000\nsamples = 1\nvalue = [[  5.44150923e-01]
 [  7.08425792e+03]]", shape="box"] ;
812 -> 813 ;
814 [label="mse = -0.0000\nsamples = 1\nvalue = [[  5.43173783e-01]
 [  7.04032520e+03]]", shape="box"] ;
812 -> 814 ;
815 [label="X[2] <= 0.2625\nmse = 1617.38922612\nsamples = 5", shape="box"] ;
795 -> 815 ;
816 [label="X[2] <= 0.2475\nmse = 46.6540022504\nsamples = 3", shape="box"] ;
815 -> 816 ;
817 [label="X[2] <= 0.2325\nmse = 6.96415159256\nsamples = 2", shape="box"] ;
816 -> 817 ;
818 [label="mse = 0.0000\nsamples = 1\nvalue = [[  5.43339339e-01]
 [  7.07530537e+03]]", shape="box"] ;
817 -> 818 ;
819 [label="mse = 0.0000\nsamples = 1\nvalue = [[  5.45051817e-01]
 [  7.08276950e+03]]", shape="box"] ;
817 -> 819 ;
820 [label="mse = -0.0000\nsamples = 1\nvalue = [[  5.44766361e-01]
 [  7.05959261e+03]]", shape="box"] ;
816 -> 820 ;
821 [label="X[2] <= 0.2775\nmse = 746.662341437\nsamples = 2", shape="box"] ;
815 -> 821 ;
822 [label="mse = 0.0000\nsamples = 1\nvalue = [[  5.42597215e-01]
 [  7.00748777e+03]]", shape="box"] ;
821 -> 822 ;
823 [label="mse = 0.0000\nsamples = 1\nvalue = [[  5.38780517e-01]
 [  6.93020065e+03]]", shape="box"] ;
821 -> 823 ;
824 [label="X[3] <= 0.1850\nmse = 5224.92640243\nsamples = 8", shape="box"] ;
776 -> 824 ;
825 [label="X[3] <= 0.1750\nmse = 1466.23966417\nsamples = 6", shape="box"] ;
824 -> 825 ;
826 [label="X[2] <= 0.3075\nmse = 445.302160712\nsamples = 4", shape="box"] ;
825 -> 826 ;
827 [label="X[3] <= 0.1650\nmse = 0.116205038157\nsamples = 2", shape="box"] ;
826 -> 827 ;
828 [label="mse = 0.0000\nsamples = 1\nvalue = [[  5.42074767e-01]
 [  7.03653095e+03]]", shape="box"] ;
827 -> 828 ;
829 [label="mse = -0.0000\nsamples = 1\nvalue = [[  5.42476199e-01]
 [  7.03556677e+03]]", shape="box"] ;
827 -> 829 ;
830 [label="X[3] <= 0.1650\nmse = 75.2617047883\nsamples = 2", shape="box"] ;
826 -> 830 ;
831 [label="mse = 0.0000\nsamples = 1\nvalue = [[  5.40533756e-01]
 [  6.99121332e+03]]", shape="box"] ;
830 -> 831 ;
832 [label="mse = 0.0000\nsamples = 1\nvalue = [[  5.39439242e-01]
 [  6.96667572e+03]]", shape="box"] ;
830 -> 832 ;
833 [label="X[2] <= 0.3075\nmse = 1031.31872709\nsamples = 2", shape="box"] ;
825 -> 833 ;
834 [label="mse = 0.0000\nsamples = 1\nvalue = [[  5.39787942e-01]
 [  6.96671326e+03]]", shape="box"] ;
833 -> 834 ;
835 [label="mse = 0.0000\nsamples = 1\nvalue = [[  5.35245313e-01]
 [  6.87588072e+03]]", shape="box"] ;
833 -> 835 ;
836 [label="X[2] <= 0.3075\nmse = 1494.82871827\nsamples = 2", shape="box"] ;
824 -> 836 ;
837 [label="mse = 0.0000\nsamples = 1\nvalue = [[  5.33671153e-01]
 [  6.83340017e+03]]", shape="box"] ;
836 -> 837 ;
838 [label="mse = -0.0000\nsamples = 1\nvalue = [[  5.27703916e-01]
 [  6.72404465e+03]]", shape="box"] ;
836 -> 838 ;
839 [label="X[2] <= 0.2775\nmse = 15099.1290598\nsamples = 8", shape="box"] ;
759 -> 839 ;
840 [label="X[2] <= 0.2625\nmse = 1669.3182363\nsamples = 5", shape="box"] ;
839 -> 840 ;
841 [label="X[2] <= 0.2475\nmse = 424.743803772\nsamples = 4", shape="box"] ;
840 -> 841 ;
842 [label="X[2] <= 0.2325\nmse = 41.9004092664\nsamples = 3", shape="box"] ;
841 -> 842 ;
843 [label="X[2] <= 0.2175\nmse = 11.2614076019\nsamples = 2", shape="box"] ;
842 -> 843 ;
844 [label="mse = 0.0000\nsamples = 1\nvalue = [[  5.42273817e-01]
 [  7.00636908e+03]]", shape="box"] ;
843 -> 844 ;
845 [label="mse = -0.0000\nsamples = 1\nvalue = [[  5.43844927e-01]
 [  7.01586072e+03]]", shape="box"] ;
843 -> 845 ;
846 [label="mse = -0.0000\nsamples = 1\nvalue = [[  5.43304495e-01]
 [  6.99352128e+03]]", shape="box"] ;
842 -> 846 ;
847 [label="mse = 0.0000\nsamples = 1\nvalue = [[  5.40748618e-01]
 [  6.94047847e+03]]", shape="box"] ;
841 -> 847 ;
848 [label="mse = 0.0000\nsamples = 1\nvalue = [[  5.36406761e-01]
 [  6.86014253e+03]]", shape="box"] ;
840 -> 848 ;
849 [label="X[2] <= 0.3075\nmse = 4766.0966499\nsamples = 3", shape="box"] ;
839 -> 849 ;
850 [label="X[2] <= 0.2925\nmse = 1690.51245246\nsamples = 2", shape="box"] ;
849 -> 850 ;
851 [label="mse = 0.0000\nsamples = 1\nvalue = [[  5.30643509e-01]
 [  6.75818541e+03]]", shape="box"] ;
850 -> 851 ;
852 [label="mse = 0.0000\nsamples = 1\nvalue = [[  5.23919860e-01]
 [  6.64189225e+03]]", shape="box"] ;
850 -> 852 ;
853 [label="mse = -0.0000\nsamples = 1\nvalue = [[  5.16721238e-01]
 [  6.51906426e+03]]", shape="box"] ;
849 -> 853 ;
854 [label="X[2] <= 0.2775\nmse = 27002.766484\nsamples = 16", shape="box"] ;
630 -> 854 ;
855 [label="X[2] <= 0.2475\nmse = 6827.30817667\nsamples = 10", shape="box"] ;
854 -> 855 ;
856 [label="X[0] <= 0.1250\nmse = 2726.4741756\nsamples = 6", shape="box"] ;
855 -> 856 ;
857 [label="X[2] <= 0.2325\nmse = 472.061593019\nsamples = 3", shape="box"] ;
856 -> 857 ;
858 [label="X[2] <= 0.2175\nmse = 53.2572544187\nsamples = 2", shape="box"] ;
857 -> 858 ;
859 [label="mse = 0.0000\nsamples = 1\nvalue = [[  5.41119365e-01]
 [  6.78459925e+03]]", shape="box"] ;
858 -> 859 ;
860 [label="mse = 0.0000\nsamples = 1\nvalue = [[  5.40765696e-01]
 [  6.76395808e+03]]", shape="box"] ;
858 -> 860 ;
861 [label="mse = -0.0000\nsamples = 1\nvalue = [[  5.38162974e-01]
 [  6.71159685e+03]]", shape="box"] ;
857 -> 861 ;
862 [label="X[2] <= 0.2325\nmse = 510.943502913\nsamples = 3", shape="box"] ;
856 -> 862 ;
863 [label="X[2] <= 0.2175\nmse = 60.4451731267\nsamples = 2", shape="box"] ;
862 -> 863 ;
864 [label="mse = 0.0000\nsamples = 1\nvalue = [[  5.41610720e-01]
 [  6.91978940e+03]]", shape="box"] ;
863 -> 864 ;
865 [label="mse = -0.0000\nsamples = 1\nvalue = [[  5.40709227e-01]
 [  6.89779937e+03]]", shape="box"] ;
863 -> 865 ;
866 [label="mse = 0.0000\nsamples = 1\nvalue = [[  5.37659774e-01]
 [  6.84371121e+03]]", shape="box"] ;
862 -> 866 ;
867 [label="X[0] <= 0.1250\nmse = 3496.80807405\nsamples = 4", shape="box"] ;
855 -> 867 ;
868 [label="X[2] <= 0.2625\nmse = 1380.19693984\nsamples = 2", shape="box"] ;
867 -> 868 ;
869 [label="mse = 0.0000\nsamples = 1\nvalue = [[  5.33482629e-01]
 [  6.63025933e+03]]", shape="box"] ;
868 -> 869 ;
870 [label="mse = 0.0000\nsamples = 1\nvalue = [[  5.27058179e-01]
 [  6.52518043e+03]]", shape="box"] ;
868 -> 870 ;
871 [label="X[2] <= 0.2625\nmse = 1421.87005555\nsamples = 2", shape="box"] ;
867 -> 871 ;
872 [label="mse = 0.0000\nsamples = 1\nvalue = [[  5.32689527e-01]
 [  6.76053096e+03]]", shape="box"] ;
871 -> 872 ;
873 [label="mse = 0.0000\nsamples = 1\nvalue = [[  5.26179020e-01]
 [  6.65387750e+03]]", shape="box"] ;
871 -> 873 ;
874 [label="X[2] <= 0.3075\nmse = 7667.90860443\nsamples = 6", shape="box"] ;
854 -> 874 ;
875 [label="X[2] <= 0.2925\nmse = 4143.56463597\nsamples = 4", shape="box"] ;
874 -> 875 ;
876 [label="X[0] <= 0.1250\nmse = 2038.2391588\nsamples = 2", shape="box"] ;
875 -> 876 ;
877 [label="mse = 0.0000\nsamples = 1\nvalue = [[  5.19364441e-01]
 [  6.40363074e+03]]", shape="box"] ;
876 -> 877 ;
878 [label="mse = -0.0000\nsamples = 1\nvalue = [[  5.18622266e-01]
 [  6.53132535e+03]]", shape="box"] ;
876 -> 878 ;
879 [label="X[0] <= 0.1250\nmse = 2026.21577176\nsamples = 2", shape="box"] ;
875 -> 879 ;
880 [label="mse = 0.0000\nsamples = 1\nvalue = [[  5.10948520e-01]
 [  6.27385512e+03]]", shape="box"] ;
879 -> 880 ;
881 [label="mse = 0.0000\nsamples = 1\nvalue = [[  5.10546668e-01]
 [  6.40117254e+03]]", shape="box"] ;
879 -> 881 ;
882 [label="X[0] <= 0.1250\nmse = 2026.81632795\nsamples = 2", shape="box"] ;
874 -> 882 ;
883 [label="mse = 0.0000\nsamples = 1\nvalue = [[  5.02335621e-01]
 [  6.14371414e+03]]", shape="box"] ;
882 -> 883 ;
884 [label="mse = 0.0000\nsamples = 1\nvalue = [[  5.02423937e-01]
 [  6.27105042e+03]]", shape="box"] ;
882 -> 884 ;
885 [label="X[3] <= 0.1550\nmse = 26667.4367911\nsamples = 160", shape="box"] ;
245 -> 885 ;
886 [label="X[2] <= 0.2175\nmse = 29608.6190237\nsamples = 40", shape="box"] ;
885 -> 886 ;
887 [label="X[2] <= 0.1875\nmse = 25153.3305604\nsamples = 12", shape="box"] ;
886 -> 887 ;
888 [label="X[3] <= 0.1450\nmse = 17447.095407\nsamples = 4", shape="box"] ;
887 -> 888 ;
889 [label="X[0] <= 0.2250\nmse = 8426.67452379\nsamples = 2", shape="box"] ;
888 -> 889 ;
890 [label="mse = 0.0000\nsamples = 1\nvalue = [[  4.71711791e-01]
 [  6.16173096e+03]]", shape="box"] ;
889 -> 890 ;
891 [label="mse = 0.0000\nsamples = 1\nvalue = [[  4.79976956e-01]
 [  6.42137186e+03]]", shape="box"] ;
889 -> 891 ;
892 [label="X[0] <= 0.2250\nmse = 7752.24447188\nsamples = 2", shape="box"] ;
888 -> 892 ;
893 [label="mse = 0.0000\nsamples = 1\nvalue = [[  4.86458381e-01]
 [  6.44064193e+03]]", shape="box"] ;
892 -> 893 ;
894 [label="mse = 0.0000\nsamples = 1\nvalue = [[  4.93975912e-01]
 [  6.68967598e+03]]", shape="box"] ;
892 -> 894 ;
895 [label="X[0] <= 0.2250\nmse = 16853.3627523\nsamples = 8", shape="box"] ;
887 -> 895 ;
896 [label="X[3] <= 0.1450\nmse = 10575.4517238\nsamples = 4", shape="box"] ;
895 -> 896 ;
897 [label="X[2] <= 0.2025\nmse = 3687.45142612\nsamples = 2", shape="box"] ;
896 -> 897 ;
898 [label="mse = 0.0000\nsamples = 1\nvalue = [[  4.85810667e-01]
 [  6.37264659e+03]]", shape="box"] ;
897 -> 898 ;
899 [label="mse = 0.0000\nsamples = 1\nvalue = [[  4.98065453e-01]
 [  6.54440110e+03]]", shape="box"] ;
897 -> 899 ;
900 [label="X[2] <= 0.2025\nmse = 2772.09467979\nsamples = 2", shape="box"] ;
896 -> 900 ;
901 [label="mse = 0.0000\nsamples = 1\nvalue = [[  4.99209236e-01]
 [  6.62648035e+03]]", shape="box"] ;
900 -> 901 ;
902 [label="mse = 0.0000\nsamples = 1\nvalue = [[  5.10154027e-01]
 [  6.77539898e+03]]", shape="box"] ;
900 -> 902 ;
903 [label="X[3] <= 0.1450\nmse = 9051.6230976\nsamples = 4", shape="box"] ;
895 -> 903 ;
904 [label="X[2] <= 0.2025\nmse = 3122.52473598\nsamples = 2", shape="box"] ;
903 -> 904 ;
905 [label="mse = 0.0000\nsamples = 1\nvalue = [[  4.93599862e-01]
 [  6.62494879e+03]]", shape="box"] ;
904 -> 905 ;
906 [label="mse = 0.0000\nsamples = 1\nvalue = [[  5.05209550e-01]
 [  6.78300004e+03]]", shape="box"] ;
904 -> 906 ;
907 [label="X[2] <= 0.2025\nmse = 2195.27525387\nsamples = 2", shape="box"] ;
903 -> 907 ;
908 [label="mse = 0.0000\nsamples = 1\nvalue = [[  5.06099871e-01]
 [  6.86385868e+03]]", shape="box"] ;
907 -> 908 ;
909 [label="mse = 0.0000\nsamples = 1\nvalue = [[  5.16276766e-01]
 [  6.99638114e+03]]", shape="box"] ;
907 -> 909 ;
910 [label="X[3] <= 0.1450\nmse = 7589.69605009\nsamples = 28", shape="box"] ;
886 -> 910 ;
911 [label="X[0] <= 0.2250\nmse = 5353.35950837\nsamples = 14", shape="box"] ;
910 -> 911 ;
912 [label="X[2] <= 0.2475\nmse = 3665.03238269\nsamples = 7", shape="box"] ;
911 -> 912 ;
913 [label="X[2] <= 0.2325\nmse = 1287.20263987\nsamples = 2", shape="box"] ;
912 -> 913 ;
914 [label="mse = 0.0000\nsamples = 1\nvalue = [[  5.08503910e-01]
 [  6.67925366e+03]]", shape="box"] ;
913 -> 914 ;
915 [label="mse = 0.0000\nsamples = 1\nvalue = [[  5.17153198e-01]
 [  6.78073085e+03]]", shape="box"] ;
913 -> 915 ;
916 [label="X[2] <= 0.2625\nmse = 356.637704181\nsamples = 5", shape="box"] ;
912 -> 916 ;
917 [label="mse = 0.0000\nsamples = 1\nvalue = [[  5.24033794e-01]
 [  6.85273642e+03]]", shape="box"] ;
916 -> 917 ;
918 [label="X[2] <= 0.2775\nmse = 56.250653234\nsamples = 4", shape="box"] ;
916 -> 918 ;
919 [label="mse = 0.0000\nsamples = 1\nvalue = [[  5.29164659e-01]
 [  6.89896414e+03]]", shape="box"] ;
918 -> 919 ;
920 [label="X[2] <= 0.3075\nmse = 16.7820640663\nsamples = 3", shape="box"] ;
918 -> 920 ;
921 [label="X[2] <= 0.2925\nmse = 1.76881915714\nsamples = 2", shape="box"] ;
920 -> 921 ;
922 [label="mse = 0.0000\nsamples = 1\nvalue = [[  5.32577607e-01]
 [  6.92261457e+03]]", shape="box"] ;
921 -> 922 ;
923 [label="mse = 0.0000\nsamples = 1\nvalue = [[  5.34338375e-01]
 [  6.92637629e+03]]", shape="box"] ;
921 -> 923 ;
924 [label="mse = 0.0000\nsamples = 1\nvalue = [[  5.34570384e-01]
 [  6.91264530e+03]]", shape="box"] ;
920 -> 924 ;
925 [label="X[2] <= 0.2325\nmse = 1226.89539847\nsamples = 7", shape="box"] ;
911 -> 925 ;
926 [label="mse = 0.0000\nsamples = 1\nvalue = [[  5.14851486e-01]
 [  6.89926402e+03]]", shape="box"] ;
925 -> 926 ;
927 [label="X[2] <= 0.2475\nmse = 327.061122019\nsamples = 6", shape="box"] ;
925 -> 927 ;
928 [label="mse = 0.0000\nsamples = 1\nvalue = [[  5.22566736e-01]
 [  6.97883074e+03]]", shape="box"] ;
927 -> 928 ;
929 [label="X[2] <= 0.3075\nmse = 151.915801873\nsamples = 5", shape="box"] ;
927 -> 929 ;
930 [label="X[2] <= 0.2625\nmse = 50.0115760821\nsamples = 4", shape="box"] ;
929 -> 930 ;
931 [label="mse = 0.0000\nsamples = 1\nvalue = [[  5.28390763e-01]
 [  7.02714873e+03]]", shape="box"] ;
930 -> 931 ;
932 [label="X[2] <= 0.2925\nmse = 29.7586498282\nsamples = 3", shape="box"] ;
930 -> 932 ;
933 [label="X[2] <= 0.2775\nmse = 0.0755619181625\nsamples = 2", shape="box"] ;
932 -> 933 ;
934 [label="mse = 0.0000\nsamples = 1\nvalue = [[  5.32364486e-01]
 [  7.04939736e+03]]", shape="box"] ;
933 -> 934 ;
935 [label="mse = 0.0000\nsamples = 1\nvalue = [[  5.34554675e-01]
 [  7.05017485e+03]]", shape="box"] ;
933 -> 935 ;
936 [label="mse = -0.0000\nsamples = 1\nvalue = [[  5.35079548e-01]
 [  7.03343452e+03]]", shape="box"] ;
932 -> 936 ;
937 [label="mse = 0.0000\nsamples = 1\nvalue = [[  5.34133005e-01]
 [  7.00263791e+03]]", shape="box"] ;
929 -> 937 ;
938 [label="X[0] <= 0.2250\nmse = 3711.73532763\nsamples = 14", shape="box"] ;
910 -> 938 ;
939 [label="X[2] <= 0.2475\nmse = 1743.34559311\nsamples = 7", shape="box"] ;
938 -> 939 ;
940 [label="X[2] <= 0.2325\nmse = 883.128470733\nsamples = 2", shape="box"] ;
939 -> 940 ;
941 [label="mse = 0.0000\nsamples = 1\nvalue = [[  5.19314790e-01]
 [  6.89028237e+03]]", shape="box"] ;
940 -> 941 ;
942 [label="mse = -0.0000\nsamples = 1\nvalue = [[  5.26701383e-01]
 [  6.97433609e+03]]", shape="box"] ;
940 -> 942 ;
943 [label="X[2] <= 0.3075\nmse = 155.89172508\nsamples = 5", shape="box"] ;
939 -> 943 ;
944 [label="X[2] <= 0.2625\nmse = 106.506314388\nsamples = 4", shape="box"] ;
943 -> 944 ;
945 [label="mse = 0.0000\nsamples = 1\nvalue = [[  5.32316623e-01]
 [  7.03056934e+03]]", shape="box"] ;
944 -> 945 ;
946 [label="X[2] <= 0.2925\nmse = 14.3940427339\nsamples = 3", shape="box"] ;
944 -> 946 ;
947 [label="X[2] <= 0.2775\nmse = 7.90117546339\nsamples = 2", shape="box"] ;
946 -> 947 ;
948 [label="mse = 0.0000\nsamples = 1\nvalue = [[  5.36170595e-01]
 [  7.06156691e+03]]", shape="box"] ;
947 -> 948 ;
949 [label="mse = -0.0000\nsamples = 1\nvalue = [[  5.38302127e-01]
 [  7.06951734e+03]]", shape="box"] ;
947 -> 949 ;
950 [label="mse = 0.0000\nsamples = 1\nvalue = [[  5.38804194e-01]
 [  7.05647905e+03]]", shape="box"] ;
946 -> 950 ;
951 [label="mse = 0.0000\nsamples = 1\nvalue = [[  5.37847430e-01]
 [  7.02480803e+03]]", shape="box"] ;
943 -> 951 ;
952 [label="X[2] <= 0.2325\nmse = 694.531389033\nsamples = 7", shape="box"] ;
938 -> 952 ;
953 [label="mse = 0.0000\nsamples = 1\nvalue = [[  5.24543126e-01]
 [  7.09161043e+03]]", shape="box"] ;
952 -> 953 ;
954 [label="X[2] <= 0.3075\nmse = 399.868481992\nsamples = 6", shape="box"] ;
952 -> 954 ;
955 [label="X[2] <= 0.2475\nmse = 156.444374217\nsamples = 5", shape="box"] ;
954 -> 955 ;
956 [label="mse = 0.0000\nsamples = 1\nvalue = [[  5.30923319e-01]
 [  7.15422992e+03]]", shape="box"] ;
955 -> 956 ;
957 [label="X[2] <= 0.2925\nmse = 108.791608097\nsamples = 4", shape="box"] ;
955 -> 957 ;
958 [label="X[2] <= 0.2775\nmse = 12.2321861821\nsamples = 3", shape="box"] ;
957 -> 958 ;
